digraph Tree {
node [shape=box] ;
0 [label="X[7] <= -0.5\ngini = 0.116\nsamples = 108868\nvalue = [161375, 10667]"] ;
1 [label="X[6] <= 10.5\ngini = 0.245\nsamples = 2307\nvalue = [520, 3126]"] ;
0 -> 1 [labeldistance=2.5, labelangle=45, headlabel="True"] ;
2 [label="X[8] <= -2.5\ngini = 0.276\nsamples = 1750\nvalue = [455, 2295]"] ;
1 -> 2 ;
3 [label="X[1] <= 7.5\ngini = 0.498\nsamples = 22\nvalue = [23, 20]"] ;
2 -> 3 ;
4 [label="X[0] <= 24.0\ngini = 0.499\nsamples = 21\nvalue = [22, 20]"] ;
3 -> 4 ;
5 [label="X[1] <= 2.5\ngini = 0.384\nsamples = 13\nvalue = [7, 20]"] ;
4 -> 5 ;
6 [label="X[8] <= -10.0\ngini = 0.393\nsamples = 12\nvalue = [7, 19]"] ;
5 -> 6 ;
7 [label="X[0] <= 1.0\ngini = 0.142\nsamples = 8\nvalue = [1, 12]"] ;
6 -> 7 ;
8 [label="gini = 0.0\nsamples = 1\nvalue = [1, 0]"] ;
7 -> 8 ;
9 [label="gini = 0.0\nsamples = 7\nvalue = [0, 12]"] ;
7 -> 9 ;
10 [label="X[0] <= 10.0\ngini = 0.497\nsamples = 4\nvalue = [6, 7]"] ;
6 -> 10 ;
11 [label="gini = 0.5\nsamples = 3\nvalue = [6, 6]"] ;
10 -> 11 ;
12 [label="gini = 0.0\nsamples = 1\nvalue = [0, 1]"] ;
10 -> 12 ;
13 [label="gini = 0.0\nsamples = 1\nvalue = [0, 1]"] ;
5 -> 13 ;
14 [label="gini = 0.0\nsamples = 8\nvalue = [15, 0]"] ;
4 -> 14 ;
15 [label="gini = 0.0\nsamples = 1\nvalue = [1, 0]"] ;
3 -> 15 ;
16 [label="X[1] <= 0.5\ngini = 0.268\nsamples = 1728\nvalue = [432, 2275]"] ;
2 -> 16 ;
17 [label="X[8] <= 11.0\ngini = 0.379\nsamples = 515\nvalue = [205, 602]"] ;
16 -> 17 ;
18 [label="X[0] <= 104.0\ngini = 0.339\nsamples = 422\nvalue = [143, 519]"] ;
17 -> 18 ;
19 [label="X[0] <= 6.5\ngini = 0.32\nsamples = 404\nvalue = [127, 509]"] ;
18 -> 19 ;
20 [label="X[6] <= 8.5\ngini = 0.349\nsamples = 302\nvalue = [106, 365]"] ;
19 -> 20 ;
21 [label="X[0] <= 3.5\ngini = 0.396\nsamples = 191\nvalue = [83, 222]"] ;
20 -> 21 ;
22 [label="X[3] <= 7.0\ngini = 0.384\nsamples = 160\nvalue = [65, 186]"] ;
21 -> 22 ;
23 [label="X[0] <= 0.5\ngini = 0.416\nsamples = 120\nvalue = [56, 134]"] ;
22 -> 23 ;
24 [label="X[6] <= 5.5\ngini = 0.371\nsamples = 72\nvalue = [28, 86]"] ;
23 -> 24 ;
25 [label="X[6] <= 1.5\ngini = 0.422\nsamples = 55\nvalue = [26, 60]"] ;
24 -> 25 ;
26 [label="gini = 0.397\nsamples = 13\nvalue = [6, 16]"] ;
25 -> 26 ;
27 [label="X[6] <= 2.5\ngini = 0.43\nsamples = 42\nvalue = [20, 44]"] ;
25 -> 27 ;
28 [label="gini = 0.48\nsamples = 3\nvalue = [2, 3]"] ;
27 -> 28 ;
29 [label="X[6] <= 4.5\ngini = 0.424\nsamples = 39\nvalue = [18, 41]"] ;
27 -> 29 ;
30 [label="X[6] <= 3.5\ngini = 0.43\nsamples = 22\nvalue = [10, 22]"] ;
29 -> 30 ;
31 [label="gini = 0.432\nsamples = 13\nvalue = [6, 13]"] ;
30 -> 31 ;
32 [label="gini = 0.426\nsamples = 9\nvalue = [4, 9]"] ;
30 -> 32 ;
33 [label="gini = 0.417\nsamples = 17\nvalue = [8, 19]"] ;
29 -> 33 ;
34 [label="X[6] <= 6.5\ngini = 0.133\nsamples = 17\nvalue = [2, 26]"] ;
24 -> 34 ;
35 [label="X[8] <= 2.242\ngini = 0.198\nsamples = 7\nvalue = [1, 8]"] ;
34 -> 35 ;
36 [label="gini = 0.444\nsamples = 3\nvalue = [1, 2]"] ;
35 -> 36 ;
37 [label="gini = 0.0\nsamples = 4\nvalue = [0, 6]"] ;
35 -> 37 ;
38 [label="X[6] <= 7.5\ngini = 0.1\nsamples = 10\nvalue = [1, 18]"] ;
34 -> 38 ;
39 [label="gini = 0.0\nsamples = 3\nvalue = [0, 4]"] ;
38 -> 39 ;
40 [label="X[8] <= 2.242\ngini = 0.124\nsamples = 7\nvalue = [1, 14]"] ;
38 -> 40 ;
41 [label="gini = 0.0\nsamples = 2\nvalue = [0, 5]"] ;
40 -> 41 ;
42 [label="gini = 0.18\nsamples = 5\nvalue = [1, 9]"] ;
40 -> 42 ;
43 [label="X[8] <= 2.242\ngini = 0.465\nsamples = 48\nvalue = [28, 48]"] ;
23 -> 43 ;
44 [label="gini = 0.0\nsamples = 1\nvalue = [2, 0]"] ;
43 -> 44 ;
45 [label="X[6] <= 5.5\ngini = 0.456\nsamples = 47\nvalue = [26, 48]"] ;
43 -> 45 ;
46 [label="X[0] <= 1.5\ngini = 0.394\nsamples = 39\nvalue = [17, 46]"] ;
45 -> 46 ;
47 [label="X[6] <= 2.5\ngini = 0.327\nsamples = 22\nvalue = [7, 27]"] ;
46 -> 47 ;
48 [label="X[6] <= 1.5\ngini = 0.142\nsamples = 6\nvalue = [1, 12]"] ;
47 -> 48 ;
49 [label="gini = 0.278\nsamples = 3\nvalue = [1, 5]"] ;
48 -> 49 ;
50 [label="gini = 0.0\nsamples = 3\nvalue = [0, 7]"] ;
48 -> 50 ;
51 [label="X[6] <= 4.5\ngini = 0.408\nsamples = 16\nvalue = [6, 15]"] ;
47 -> 51 ;
52 [label="X[6] <= 3.5\ngini = 0.444\nsamples = 14\nvalue = [6, 12]"] ;
51 -> 52 ;
53 [label="gini = 0.444\nsamples = 6\nvalue = [2, 4]"] ;
52 -> 53 ;
54 [label="gini = 0.444\nsamples = 8\nvalue = [4, 8]"] ;
52 -> 54 ;
55 [label="gini = 0.0\nsamples = 2\nvalue = [0, 3]"] ;
51 -> 55 ;
56 [label="X[0] <= 2.5\ngini = 0.452\nsamples = 17\nvalue = [10, 19]"] ;
46 -> 56 ;
57 [label="X[6] <= 1.5\ngini = 0.42\nsamples = 7\nvalue = [3, 7]"] ;
56 -> 57 ;
58 [label="gini = 0.0\nsamples = 1\nvalue = [2, 0]"] ;
57 -> 58 ;
59 [label="X[6] <= 4.5\ngini = 0.219\nsamples = 6\nvalue = [1, 7]"] ;
57 -> 59 ;
60 [label="X[6] <= 3.0\ngini = 0.444\nsamples = 3\nvalue = [1, 2]"] ;
59 -> 60 ;
61 [label="gini = 0.0\nsamples = 2\nvalue = [0, 2]"] ;
60 -> 61 ;
62 [label="gini = 0.0\nsamples = 1\nvalue = [1, 0]"] ;
60 -> 62 ;
63 [label="gini = 0.0\nsamples = 3\nvalue = [0, 5]"] ;
59 -> 63 ;
64 [label="X[6] <= 4.5\ngini = 0.465\nsamples = 10\nvalue = [7, 12]"] ;
56 -> 64 ;
65 [label="X[6] <= 3.5\ngini = 0.391\nsamples = 8\nvalue = [4, 11]"] ;
64 -> 65 ;
66 [label="X[6] <= 2.5\ngini = 0.48\nsamples = 6\nvalue = [4, 6]"] ;
65 -> 66 ;
67 [label="X[6] <= 1.5\ngini = 0.375\nsamples = 4\nvalue = [2, 6]"] ;
66 -> 67 ;
68 [label="gini = 0.5\nsamples = 2\nvalue = [2, 2]"] ;
67 -> 68 ;
69 [label="gini = 0.0\nsamples = 2\nvalue = [0, 4]"] ;
67 -> 69 ;
70 [label="gini = 0.0\nsamples = 2\nvalue = [2, 0]"] ;
66 -> 70 ;
71 [label="gini = 0.0\nsamples = 2\nvalue = [0, 5]"] ;
65 -> 71 ;
72 [label="gini = 0.375\nsamples = 2\nvalue = [3, 1]"] ;
64 -> 72 ;
73 [label="X[0] <= 1.5\ngini = 0.298\nsamples = 8\nvalue = [9, 2]"] ;
45 -> 73 ;
74 [label="gini = 0.0\nsamples = 5\nvalue = [7, 0]"] ;
73 -> 74 ;
75 [label="X[0] <= 2.5\ngini = 0.5\nsamples = 3\nvalue = [2, 2]"] ;
73 -> 75 ;
76 [label="gini = 0.0\nsamples = 1\nvalue = [0, 2]"] ;
75 -> 76 ;
77 [label="gini = 0.0\nsamples = 2\nvalue = [2, 0]"] ;
75 -> 77 ;
78 [label="X[0] <= 0.5\ngini = 0.252\nsamples = 40\nvalue = [9, 52]"] ;
22 -> 78 ;
79 [label="X[6] <= 2.5\ngini = 0.386\nsamples = 19\nvalue = [6, 17]"] ;
78 -> 79 ;
80 [label="X[6] <= 1.5\ngini = 0.5\nsamples = 11\nvalue = [6, 6]"] ;
79 -> 80 ;
81 [label="gini = 0.48\nsamples = 4\nvalue = [3, 2]"] ;
80 -> 81 ;
82 [label="gini = 0.49\nsamples = 7\nvalue = [3, 4]"] ;
80 -> 82 ;
83 [label="gini = 0.0\nsamples = 8\nvalue = [0, 11]"] ;
79 -> 83 ;
84 [label="X[6] <= 5.5\ngini = 0.145\nsamples = 21\nvalue = [3, 35]"] ;
78 -> 84 ;
85 [label="X[6] <= 2.5\ngini = 0.102\nsamples = 20\nvalue = [2, 35]"] ;
84 -> 85 ;
86 [label="X[6] <= 1.5\ngini = 0.153\nsamples = 14\nvalue = [2, 22]"] ;
85 -> 86 ;
87 [label="gini = 0.0\nsamples = 6\nvalue = [0, 12]"] ;
86 -> 87 ;
88 [label="X[0] <= 1.5\ngini = 0.278\nsamples = 8\nvalue = [2, 10]"] ;
86 -> 88 ;
89 [label="gini = 0.0\nsamples = 4\nvalue = [0, 5]"] ;
88 -> 89 ;
90 [label="X[0] <= 2.5\ngini = 0.408\nsamples = 4\nvalue = [2, 5]"] ;
88 -> 90 ;
91 [label="gini = 0.5\nsamples = 3\nvalue = [2, 2]"] ;
90 -> 91 ;
92 [label="gini = 0.0\nsamples = 1\nvalue = [0, 3]"] ;
90 -> 92 ;
93 [label="gini = 0.0\nsamples = 6\nvalue = [0, 13]"] ;
85 -> 93 ;
94 [label="gini = 0.0\nsamples = 1\nvalue = [1, 0]"] ;
84 -> 94 ;
95 [label="X[3] <= 7.0\ngini = 0.444\nsamples = 31\nvalue = [18, 36]"] ;
21 -> 95 ;
96 [label="X[8] <= 6.242\ngini = 0.499\nsamples = 18\nvalue = [15, 16]"] ;
95 -> 96 ;
97 [label="X[0] <= 5.5\ngini = 0.497\nsamples = 17\nvalue = [15, 13]"] ;
96 -> 97 ;
98 [label="X[0] <= 4.5\ngini = 0.454\nsamples = 13\nvalue = [15, 8]"] ;
97 -> 98 ;
99 [label="X[6] <= 4.5\ngini = 0.298\nsamples = 5\nvalue = [9, 2]"] ;
98 -> 99 ;
100 [label="X[6] <= 3.5\ngini = 0.5\nsamples = 2\nvalue = [2, 2]"] ;
99 -> 100 ;
101 [label="gini = 0.0\nsamples = 1\nvalue = [2, 0]"] ;
100 -> 101 ;
102 [label="gini = 0.0\nsamples = 1\nvalue = [0, 2]"] ;
100 -> 102 ;
103 [label="gini = 0.0\nsamples = 3\nvalue = [7, 0]"] ;
99 -> 103 ;
104 [label="X[6] <= 2.5\ngini = 0.5\nsamples = 8\nvalue = [6, 6]"] ;
98 -> 104 ;
105 [label="gini = 0.0\nsamples = 3\nvalue = [0, 3]"] ;
104 -> 105 ;
106 [label="X[8] <= 2.242\ngini = 0.444\nsamples = 5\nvalue = [6, 3]"] ;
104 -> 106 ;
107 [label="gini = 0.0\nsamples = 1\nvalue = [0, 2]"] ;
106 -> 107 ;
108 [label="X[6] <= 3.5\ngini = 0.245\nsamples = 4\nvalue = [6, 1]"] ;
106 -> 108 ;
109 [label="gini = 0.0\nsamples = 1\nvalue = [2, 0]"] ;
108 -> 109 ;
110 [label="gini = 0.32\nsamples = 3\nvalue = [4, 1]"] ;
108 -> 110 ;
111 [label="gini = 0.0\nsamples = 4\nvalue = [0, 5]"] ;
97 -> 111 ;
112 [label="gini = 0.0\nsamples = 1\nvalue = [0, 3]"] ;
96 -> 112 ;
113 [label="X[6] <= 2.5\ngini = 0.227\nsamples = 13\nvalue = [3, 20]"] ;
95 -> 113 ;
114 [label="X[0] <= 5.5\ngini = 0.397\nsamples = 6\nvalue = [3, 8]"] ;
113 -> 114 ;
115 [label="X[0] <= 4.5\ngini = 0.198\nsamples = 5\nvalue = [1, 8]"] ;
114 -> 115 ;
116 [label="gini = 0.0\nsamples = 2\nvalue = [0, 6]"] ;
115 -> 116 ;
117 [label="gini = 0.444\nsamples = 3\nvalue = [1, 2]"] ;
115 -> 117 ;
118 [label="gini = 0.0\nsamples = 1\nvalue = [2, 0]"] ;
114 -> 118 ;
119 [label="gini = 0.0\nsamples = 7\nvalue = [0, 12]"] ;
113 -> 119 ;
120 [label="X[0] <= 4.5\ngini = 0.239\nsamples = 111\nvalue = [23, 143]"] ;
20 -> 120 ;
121 [label="X[0] <= 3.5\ngini = 0.244\nsamples = 107\nvalue = [23, 139]"] ;
120 -> 121 ;
122 [label="X[8] <= 2.242\ngini = 0.241\nsamples = 103\nvalue = [22, 135]"] ;
121 -> 122 ;
123 [label="X[6] <= 9.5\ngini = 0.444\nsamples = 5\nvalue = [3, 6]"] ;
122 -> 123 ;
124 [label="gini = 0.48\nsamples = 2\nvalue = [3, 2]"] ;
123 -> 124 ;
125 [label="gini = 0.0\nsamples = 3\nvalue = [0, 4]"] ;
123 -> 125 ;
126 [label="X[6] <= 9.5\ngini = 0.224\nsamples = 98\nvalue = [19, 129]"] ;
122 -> 126 ;
127 [label="X[3] <= 7.0\ngini = 0.131\nsamples = 54\nvalue = [5, 66]"] ;
126 -> 127 ;
128 [label="X[2] <= 7939.052\ngini = 0.198\nsamples = 8\nvalue = [1, 8]"] ;
127 -> 128 ;
129 [label="gini = 0.0\nsamples = 3\nvalue = [0, 4]"] ;
128 -> 129 ;
130 [label="X[0] <= 0.5\ngini = 0.32\nsamples = 5\nvalue = [1, 4]"] ;
128 -> 130 ;
131 [label="gini = 0.444\nsamples = 3\nvalue = [1, 2]"] ;
130 -> 131 ;
132 [label="gini = 0.0\nsamples = 2\nvalue = [0, 2]"] ;
130 -> 132 ;
133 [label="X[0] <= 0.5\ngini = 0.121\nsamples = 46\nvalue = [4, 58]"] ;
127 -> 133 ;
134 [label="gini = 0.193\nsamples = 26\nvalue = [4, 33]"] ;
133 -> 134 ;
135 [label="gini = 0.0\nsamples = 20\nvalue = [0, 25]"] ;
133 -> 135 ;
136 [label="X[0] <= 0.5\ngini = 0.298\nsamples = 44\nvalue = [14, 63]"] ;
126 -> 136 ;
137 [label="X[2] <= 10239.052\ngini = 0.233\nsamples = 38\nvalue = [9, 58]"] ;
136 -> 137 ;
138 [label="gini = 0.0\nsamples = 2\nvalue = [0, 2]"] ;
137 -> 138 ;
139 [label="X[3] <= 7.0\ngini = 0.239\nsamples = 36\nvalue = [9, 56]"] ;
137 -> 139 ;
140 [label="gini = 0.133\nsamples = 8\nvalue = [1, 13]"] ;
139 -> 140 ;
141 [label="gini = 0.265\nsamples = 28\nvalue = [8, 43]"] ;
139 -> 141 ;
142 [label="X[3] <= 7.0\ngini = 0.5\nsamples = 6\nvalue = [5, 5]"] ;
136 -> 142 ;
143 [label="gini = 0.0\nsamples = 4\nvalue = [0, 5]"] ;
142 -> 143 ;
144 [label="gini = 0.0\nsamples = 2\nvalue = [5, 0]"] ;
142 -> 144 ;
145 [label="X[6] <= 9.5\ngini = 0.32\nsamples = 4\nvalue = [1, 4]"] ;
121 -> 145 ;
146 [label="gini = 0.0\nsamples = 1\nvalue = [0, 1]"] ;
145 -> 146 ;
147 [label="gini = 0.375\nsamples = 3\nvalue = [1, 3]"] ;
145 -> 147 ;
148 [label="gini = 0.0\nsamples = 4\nvalue = [0, 4]"] ;
120 -> 148 ;
149 [label="X[0] <= 7.5\ngini = 0.222\nsamples = 102\nvalue = [21, 144]"] ;
19 -> 149 ;
150 [label="gini = 0.0\nsamples = 19\nvalue = [0, 35]"] ;
149 -> 150 ;
151 [label="X[6] <= 2.5\ngini = 0.271\nsamples = 83\nvalue = [21, 109]"] ;
149 -> 151 ;
152 [label="X[0] <= 49.5\ngini = 0.388\nsamples = 25\nvalue = [10, 28]"] ;
151 -> 152 ;
153 [label="X[6] <= 1.5\ngini = 0.334\nsamples = 21\nvalue = [7, 26]"] ;
152 -> 153 ;
154 [label="X[0] <= 8.5\ngini = 0.18\nsamples = 5\nvalue = [1, 9]"] ;
153 -> 154 ;
155 [label="gini = 0.444\nsamples = 2\nvalue = [1, 2]"] ;
154 -> 155 ;
156 [label="gini = 0.0\nsamples = 3\nvalue = [0, 7]"] ;
154 -> 156 ;
157 [label="X[3] <= 7.0\ngini = 0.386\nsamples = 16\nvalue = [6, 17]"] ;
153 -> 157 ;
158 [label="X[0] <= 15.5\ngini = 0.426\nsamples = 9\nvalue = [4, 9]"] ;
157 -> 158 ;
159 [label="X[0] <= 9.5\ngini = 0.48\nsamples = 4\nvalue = [3, 2]"] ;
158 -> 159 ;
160 [label="gini = 0.0\nsamples = 2\nvalue = [0, 2]"] ;
159 -> 160 ;
161 [label="gini = 0.0\nsamples = 2\nvalue = [3, 0]"] ;
159 -> 161 ;
162 [label="X[0] <= 36.5\ngini = 0.219\nsamples = 5\nvalue = [1, 7]"] ;
158 -> 162 ;
163 [label="gini = 0.0\nsamples = 3\nvalue = [0, 5]"] ;
162 -> 163 ;
164 [label="X[0] <= 42.5\ngini = 0.444\nsamples = 2\nvalue = [1, 2]"] ;
162 -> 164 ;
165 [label="gini = 0.0\nsamples = 1\nvalue = [1, 0]"] ;
164 -> 165 ;
166 [label="gini = 0.0\nsamples = 1\nvalue = [0, 2]"] ;
164 -> 166 ;
167 [label="X[0] <= 13.0\ngini = 0.32\nsamples = 7\nvalue = [2, 8]"] ;
157 -> 167 ;
168 [label="gini = 0.0\nsamples = 3\nvalue = [0, 4]"] ;
167 -> 168 ;
169 [label="X[0] <= 14.5\ngini = 0.444\nsamples = 4\nvalue = [2, 4]"] ;
167 -> 169 ;
170 [label="gini = 0.0\nsamples = 1\nvalue = [2, 0]"] ;
169 -> 170 ;
171 [label="gini = 0.0\nsamples = 3\nvalue = [0, 4]"] ;
169 -> 171 ;
172 [label="X[6] <= 1.5\ngini = 0.48\nsamples = 4\nvalue = [3, 2]"] ;
152 -> 172 ;
173 [label="X[0] <= 75.5\ngini = 0.444\nsamples = 2\nvalue = [2, 1]"] ;
172 -> 173 ;
174 [label="gini = 0.0\nsamples = 1\nvalue = [2, 0]"] ;
173 -> 174 ;
175 [label="gini = 0.0\nsamples = 1\nvalue = [0, 1]"] ;
173 -> 175 ;
176 [label="X[0] <= 57.0\ngini = 0.5\nsamples = 2\nvalue = [1, 1]"] ;
172 -> 176 ;
177 [label="gini = 0.0\nsamples = 1\nvalue = [1, 0]"] ;
176 -> 177 ;
178 [label="gini = 0.0\nsamples = 1\nvalue = [0, 1]"] ;
176 -> 178 ;
179 [label="X[8] <= 2.242\ngini = 0.211\nsamples = 58\nvalue = [11, 81]"] ;
151 -> 179 ;
180 [label="X[2] <= 7914.052\ngini = 0.5\nsamples = 3\nvalue = [2, 2]"] ;
179 -> 180 ;
181 [label="gini = 0.0\nsamples = 1\nvalue = [1, 0]"] ;
180 -> 181 ;
182 [label="X[0] <= 30.5\ngini = 0.444\nsamples = 2\nvalue = [1, 2]"] ;
180 -> 182 ;
183 [label="gini = 0.0\nsamples = 1\nvalue = [0, 2]"] ;
182 -> 183 ;
184 [label="gini = 0.0\nsamples = 1\nvalue = [1, 0]"] ;
182 -> 184 ;
185 [label="X[8] <= 5.242\ngini = 0.184\nsamples = 55\nvalue = [9, 79]"] ;
179 -> 185 ;
186 [label="X[0] <= 24.5\ngini = 0.191\nsamples = 53\nvalue = [9, 75]"] ;
185 -> 186 ;
187 [label="X[6] <= 5.5\ngini = 0.274\nsamples = 35\nvalue = [9, 46]"] ;
186 -> 187 ;
188 [label="X[3] <= 7.0\ngini = 0.133\nsamples = 16\nvalue = [2, 26]"] ;
187 -> 188 ;
189 [label="X[6] <= 3.5\ngini = 0.172\nsamples = 12\nvalue = [2, 19]"] ;
188 -> 189 ;
190 [label="X[0] <= 14.0\ngini = 0.5\nsamples = 2\nvalue = [1, 1]"] ;
189 -> 190 ;
191 [label="gini = 0.0\nsamples = 1\nvalue = [0, 1]"] ;
190 -> 191 ;
192 [label="gini = 0.0\nsamples = 1\nvalue = [1, 0]"] ;
190 -> 192 ;
193 [label="X[0] <= 13.5\ngini = 0.1\nsamples = 10\nvalue = [1, 18]"] ;
189 -> 193 ;
194 [label="gini = 0.0\nsamples = 7\nvalue = [0, 13]"] ;
193 -> 194 ;
195 [label="X[0] <= 14.5\ngini = 0.278\nsamples = 3\nvalue = [1, 5]"] ;
193 -> 195 ;
196 [label="gini = 0.0\nsamples = 1\nvalue = [1, 0]"] ;
195 -> 196 ;
197 [label="gini = 0.0\nsamples = 2\nvalue = [0, 5]"] ;
195 -> 197 ;
198 [label="gini = 0.0\nsamples = 4\nvalue = [0, 7]"] ;
188 -> 198 ;
199 [label="X[3] <= 13.0\ngini = 0.384\nsamples = 19\nvalue = [7, 20]"] ;
187 -> 199 ;
200 [label="X[0] <= 8.5\ngini = 0.355\nsamples = 18\nvalue = [6, 20]"] ;
199 -> 200 ;
201 [label="X[6] <= 6.5\ngini = 0.375\nsamples = 3\nvalue = [3, 1]"] ;
200 -> 201 ;
202 [label="gini = 0.0\nsamples = 2\nvalue = [3, 0]"] ;
201 -> 202 ;
203 [label="gini = 0.0\nsamples = 1\nvalue = [0, 1]"] ;
201 -> 203 ;
204 [label="X[6] <= 8.5\ngini = 0.236\nsamples = 15\nvalue = [3, 19]"] ;
200 -> 204 ;
205 [label="X[0] <= 13.5\ngini = 0.32\nsamples = 9\nvalue = [3, 12]"] ;
204 -> 205 ;
206 [label="gini = 0.0\nsamples = 2\nvalue = [0, 8]"] ;
205 -> 206 ;
207 [label="X[6] <= 6.5\ngini = 0.49\nsamples = 7\nvalue = [3, 4]"] ;
205 -> 207 ;
208 [label="gini = 0.0\nsamples = 2\nvalue = [0, 2]"] ;
207 -> 208 ;
209 [label="X[0] <= 19.0\ngini = 0.48\nsamples = 5\nvalue = [3, 2]"] ;
207 -> 209 ;
210 [label="gini = 0.0\nsamples = 2\nvalue = [2, 0]"] ;
209 -> 210 ;
211 [label="X[6] <= 7.5\ngini = 0.444\nsamples = 3\nvalue = [1, 2]"] ;
209 -> 211 ;
212 [label="gini = 0.0\nsamples = 1\nvalue = [0, 1]"] ;
211 -> 212 ;
213 [label="gini = 0.5\nsamples = 2\nvalue = [1, 1]"] ;
211 -> 213 ;
214 [label="gini = 0.0\nsamples = 6\nvalue = [0, 7]"] ;
204 -> 214 ;
215 [label="gini = 0.0\nsamples = 1\nvalue = [1, 0]"] ;
199 -> 215 ;
216 [label="gini = 0.0\nsamples = 18\nvalue = [0, 29]"] ;
186 -> 216 ;
217 [label="gini = 0.0\nsamples = 2\nvalue = [0, 4]"] ;
185 -> 217 ;
218 [label="X[2] <= 90.0\ngini = 0.473\nsamples = 18\nvalue = [16, 10]"] ;
18 -> 218 ;
219 [label="gini = 0.0\nsamples = 1\nvalue = [0, 2]"] ;
218 -> 219 ;
220 [label="X[0] <= 273.5\ngini = 0.444\nsamples = 17\nvalue = [16, 8]"] ;
218 -> 220 ;
221 [label="X[0] <= 127.5\ngini = 0.363\nsamples = 15\nvalue = [16, 5]"] ;
220 -> 221 ;
222 [label="gini = 0.0\nsamples = 3\nvalue = [5, 0]"] ;
221 -> 222 ;
223 [label="X[6] <= 8.5\ngini = 0.43\nsamples = 12\nvalue = [11, 5]"] ;
221 -> 223 ;
224 [label="X[8] <= 3.742\ngini = 0.337\nsamples = 11\nvalue = [11, 3]"] ;
223 -> 224 ;
225 [label="gini = 0.0\nsamples = 1\nvalue = [0, 1]"] ;
224 -> 225 ;
226 [label="X[2] <= 7939.052\ngini = 0.26\nsamples = 10\nvalue = [11, 2]"] ;
224 -> 226 ;
227 [label="gini = 0.0\nsamples = 1\nvalue = [1, 0]"] ;
226 -> 227 ;
228 [label="X[6] <= 6.5\ngini = 0.278\nsamples = 9\nvalue = [10, 2]"] ;
226 -> 228 ;
229 [label="X[6] <= 4.0\ngini = 0.375\nsamples = 5\nvalue = [6, 2]"] ;
228 -> 229 ;
230 [label="gini = 0.0\nsamples = 2\nvalue = [2, 0]"] ;
229 -> 230 ;
231 [label="X[0] <= 205.5\ngini = 0.444\nsamples = 3\nvalue = [4, 2]"] ;
229 -> 231 ;
232 [label="gini = 0.0\nsamples = 2\nvalue = [0, 2]"] ;
231 -> 232 ;
233 [label="gini = 0.0\nsamples = 1\nvalue = [4, 0]"] ;
231 -> 233 ;
234 [label="gini = 0.0\nsamples = 4\nvalue = [4, 0]"] ;
228 -> 234 ;
235 [label="gini = 0.0\nsamples = 1\nvalue = [0, 2]"] ;
223 -> 235 ;
236 [label="gini = 0.0\nsamples = 2\nvalue = [0, 3]"] ;
220 -> 236 ;
237 [label="X[2] <= 400.0\ngini = 0.49\nsamples = 93\nvalue = [62, 83]"] ;
17 -> 237 ;
238 [label="X[0] <= 301.5\ngini = 0.245\nsamples = 20\nvalue = [4, 24]"] ;
237 -> 238 ;
239 [label="X[8] <= 179.0\ngini = 0.198\nsamples = 19\nvalue = [3, 24]"] ;
238 -> 239 ;
240 [label="X[0] <= 42.0\ngini = 0.142\nsamples = 18\nvalue = [2, 24]"] ;
239 -> 240 ;
241 [label="X[0] <= 1.5\ngini = 0.091\nsamples = 14\nvalue = [1, 20]"] ;
240 -> 241 ;
242 [label="X[2] <= 195.0\ngini = 0.18\nsamples = 7\nvalue = [1, 9]"] ;
241 -> 242 ;
243 [label="gini = 0.0\nsamples = 5\nvalue = [0, 8]"] ;
242 -> 243 ;
244 [label="X[8] <= 56.0\ngini = 0.5\nsamples = 2\nvalue = [1, 1]"] ;
242 -> 244 ;
245 [label="gini = 0.0\nsamples = 1\nvalue = [0, 1]"] ;
244 -> 245 ;
246 [label="gini = 0.0\nsamples = 1\nvalue = [1, 0]"] ;
244 -> 246 ;
247 [label="gini = 0.0\nsamples = 7\nvalue = [0, 11]"] ;
241 -> 247 ;
248 [label="X[8] <= 52.0\ngini = 0.32\nsamples = 4\nvalue = [1, 4]"] ;
240 -> 248 ;
249 [label="gini = 0.0\nsamples = 1\nvalue = [0, 1]"] ;
248 -> 249 ;
250 [label="X[0] <= 52.5\ngini = 0.375\nsamples = 3\nvalue = [1, 3]"] ;
248 -> 250 ;
251 [label="gini = 0.0\nsamples = 1\nvalue = [1, 0]"] ;
250 -> 251 ;
252 [label="gini = 0.0\nsamples = 2\nvalue = [0, 3]"] ;
250 -> 252 ;
253 [label="gini = 0.0\nsamples = 1\nvalue = [1, 0]"] ;
239 -> 253 ;
254 [label="gini = 0.0\nsamples = 1\nvalue = [1, 0]"] ;
238 -> 254 ;
255 [label="X[0] <= 100.5\ngini = 0.5\nsamples = 73\nvalue = [58, 59]"] ;
237 -> 255 ;
256 [label="X[2] <= 92945.0\ngini = 0.499\nsamples = 68\nvalue = [53, 59]"] ;
255 -> 256 ;
257 [label="X[0] <= 17.5\ngini = 0.496\nsamples = 66\nvalue = [49, 59]"] ;
256 -> 257 ;
258 [label="X[6] <= 5.5\ngini = 0.485\nsamples = 53\nvalue = [36, 51]"] ;
257 -> 258 ;
259 [label="gini = 0.0\nsamples = 6\nvalue = [0, 7]"] ;
258 -> 259 ;
260 [label="X[0] <= 9.0\ngini = 0.495\nsamples = 47\nvalue = [36, 44]"] ;
258 -> 260 ;
261 [label="X[8] <= 106.0\ngini = 0.5\nsamples = 43\nvalue = [36, 37]"] ;
260 -> 261 ;
262 [label="X[6] <= 7.5\ngini = 0.492\nsamples = 37\nvalue = [36, 28]"] ;
261 -> 262 ;
263 [label="X[0] <= 1.5\ngini = 0.46\nsamples = 19\nvalue = [25, 14]"] ;
262 -> 263 ;
264 [label="X[8] <= 59.5\ngini = 0.165\nsamples = 7\nvalue = [10, 1]"] ;
263 -> 264 ;
265 [label="gini = 0.0\nsamples = 6\nvalue = [10, 0]"] ;
264 -> 265 ;
266 [label="gini = 0.0\nsamples = 1\nvalue = [0, 1]"] ;
264 -> 266 ;
267 [label="X[0] <= 3.5\ngini = 0.497\nsamples = 12\nvalue = [15, 13]"] ;
263 -> 267 ;
268 [label="X[2] <= 17709.052\ngini = 0.375\nsamples = 6\nvalue = [3, 9]"] ;
267 -> 268 ;
269 [label="X[8] <= 57.0\ngini = 0.298\nsamples = 5\nvalue = [2, 9]"] ;
268 -> 269 ;
270 [label="gini = 0.0\nsamples = 3\nvalue = [0, 6]"] ;
269 -> 270 ;
271 [label="X[6] <= 6.5\ngini = 0.48\nsamples = 2\nvalue = [2, 3]"] ;
269 -> 271 ;
272 [label="gini = 0.0\nsamples = 1\nvalue = [2, 0]"] ;
271 -> 272 ;
273 [label="gini = 0.0\nsamples = 1\nvalue = [0, 3]"] ;
271 -> 273 ;
274 [label="gini = 0.0\nsamples = 1\nvalue = [1, 0]"] ;
268 -> 274 ;
275 [label="X[6] <= 6.5\ngini = 0.375\nsamples = 6\nvalue = [12, 4]"] ;
267 -> 275 ;
276 [label="X[0] <= 7.0\ngini = 0.408\nsamples = 5\nvalue = [10, 4]"] ;
275 -> 276 ;
277 [label="X[8] <= 49.5\ngini = 0.494\nsamples = 4\nvalue = [5, 4]"] ;
276 -> 277 ;
278 [label="gini = 0.0\nsamples = 1\nvalue = [0, 1]"] ;
277 -> 278 ;
279 [label="X[8] <= 53.5\ngini = 0.469\nsamples = 3\nvalue = [5, 3]"] ;
277 -> 279 ;
280 [label="gini = 0.0\nsamples = 1\nvalue = [3, 0]"] ;
279 -> 280 ;
281 [label="gini = 0.48\nsamples = 2\nvalue = [2, 3]"] ;
279 -> 281 ;
282 [label="gini = 0.0\nsamples = 1\nvalue = [5, 0]"] ;
276 -> 282 ;
283 [label="gini = 0.0\nsamples = 1\nvalue = [2, 0]"] ;
275 -> 283 ;
284 [label="X[6] <= 8.5\ngini = 0.493\nsamples = 18\nvalue = [11, 14]"] ;
262 -> 284 ;
285 [label="X[8] <= 53.5\ngini = 0.198\nsamples = 6\nvalue = [1, 8]"] ;
284 -> 285 ;
286 [label="X[0] <= 4.5\ngini = 0.5\nsamples = 2\nvalue = [1, 1]"] ;
285 -> 286 ;
287 [label="gini = 0.0\nsamples = 1\nvalue = [1, 0]"] ;
286 -> 287 ;
288 [label="gini = 0.0\nsamples = 1\nvalue = [0, 1]"] ;
286 -> 288 ;
289 [label="gini = 0.0\nsamples = 4\nvalue = [0, 7]"] ;
285 -> 289 ;
290 [label="X[8] <= 81.5\ngini = 0.469\nsamples = 12\nvalue = [10, 6]"] ;
284 -> 290 ;
291 [label="X[0] <= 3.0\ngini = 0.497\nsamples = 10\nvalue = [7, 6]"] ;
290 -> 291 ;
292 [label="X[2] <= 7295.0\ngini = 0.463\nsamples = 9\nvalue = [7, 4]"] ;
291 -> 292 ;
293 [label="gini = 0.0\nsamples = 3\nvalue = [3, 0]"] ;
292 -> 293 ;
294 [label="X[0] <= 1.5\ngini = 0.5\nsamples = 6\nvalue = [4, 4]"] ;
292 -> 294 ;
295 [label="X[6] <= 9.5\ngini = 0.49\nsamples = 5\nvalue = [3, 4]"] ;
294 -> 295 ;
296 [label="X[8] <= 54.5\ngini = 0.48\nsamples = 3\nvalue = [3, 2]"] ;
295 -> 296 ;
297 [label="gini = 0.0\nsamples = 1\nvalue = [0, 1]"] ;
296 -> 297 ;
298 [label="X[8] <= 57.5\ngini = 0.375\nsamples = 2\nvalue = [3, 1]"] ;
296 -> 298 ;
299 [label="gini = 0.0\nsamples = 1\nvalue = [3, 0]"] ;
298 -> 299 ;
300 [label="gini = 0.0\nsamples = 1\nvalue = [0, 1]"] ;
298 -> 300 ;
301 [label="gini = 0.0\nsamples = 2\nvalue = [0, 2]"] ;
295 -> 301 ;
302 [label="gini = 0.0\nsamples = 1\nvalue = [1, 0]"] ;
294 -> 302 ;
303 [label="gini = 0.0\nsamples = 1\nvalue = [0, 2]"] ;
291 -> 303 ;
304 [label="gini = 0.0\nsamples = 2\nvalue = [3, 0]"] ;
290 -> 304 ;
305 [label="gini = 0.0\nsamples = 6\nvalue = [0, 9]"] ;
261 -> 305 ;
306 [label="gini = 0.0\nsamples = 4\nvalue = [0, 7]"] ;
260 -> 306 ;
307 [label="X[8] <= 67.0\ngini = 0.472\nsamples = 13\nvalue = [13, 8]"] ;
257 -> 307 ;
308 [label="gini = 0.0\nsamples = 8\nvalue = [11, 0]"] ;
307 -> 308 ;
309 [label="X[0] <= 28.5\ngini = 0.32\nsamples = 5\nvalue = [2, 8]"] ;
307 -> 309 ;
310 [label="gini = 0.0\nsamples = 1\nvalue = [2, 0]"] ;
309 -> 310 ;
311 [label="gini = 0.0\nsamples = 4\nvalue = [0, 8]"] ;
309 -> 311 ;
312 [label="gini = 0.0\nsamples = 2\nvalue = [4, 0]"] ;
256 -> 312 ;
313 [label="gini = 0.0\nsamples = 5\nvalue = [5, 0]"] ;
255 -> 313 ;
314 [label="X[0] <= 19.5\ngini = 0.21\nsamples = 1213\nvalue = [227, 1673]"] ;
16 -> 314 ;
315 [label="X[1] <= 7.0\ngini = 0.177\nsamples = 1066\nvalue = [164, 1509]"] ;
314 -> 315 ;
316 [label="X[2] <= 1065.0\ngini = 0.149\nsamples = 926\nvalue = [118, 1342]"] ;
315 -> 316 ;
317 [label="X[0] <= 17.0\ngini = 0.033\nsamples = 121\nvalue = [3, 175]"] ;
316 -> 317 ;
318 [label="X[1] <= 4.5\ngini = 0.011\nsamples = 118\nvalue = [1, 173]"] ;
317 -> 318 ;
319 [label="X[8] <= 55.5\ngini = 0.02\nsamples = 70\nvalue = [1, 97]"] ;
318 -> 319 ;
320 [label="X[6] <= 8.5\ngini = 0.053\nsamples = 27\nvalue = [1, 36]"] ;
319 -> 320 ;
321 [label="gini = 0.0\nsamples = 10\nvalue = [0, 15]"] ;
320 -> 321 ;
322 [label="X[2] <= 290.0\ngini = 0.087\nsamples = 17\nvalue = [1, 21]"] ;
320 -> 322 ;
323 [label="gini = 0.0\nsamples = 14\nvalue = [0, 19]"] ;
322 -> 323 ;
324 [label="X[6] <= 9.5\ngini = 0.444\nsamples = 3\nvalue = [1, 2]"] ;
322 -> 324 ;
325 [label="gini = 0.0\nsamples = 1\nvalue = [1, 0]"] ;
324 -> 325 ;
326 [label="gini = 0.0\nsamples = 2\nvalue = [0, 2]"] ;
324 -> 326 ;
327 [label="gini = 0.0\nsamples = 43\nvalue = [0, 61]"] ;
319 -> 327 ;
328 [label="gini = 0.0\nsamples = 48\nvalue = [0, 76]"] ;
318 -> 328 ;
329 [label="X[1] <= 4.5\ngini = 0.5\nsamples = 3\nvalue = [2, 2]"] ;
317 -> 329 ;
330 [label="gini = 0.0\nsamples = 1\nvalue = [0, 1]"] ;
329 -> 330 ;
331 [label="X[6] <= 8.5\ngini = 0.444\nsamples = 2\nvalue = [2, 1]"] ;
329 -> 331 ;
332 [label="gini = 0.0\nsamples = 1\nvalue = [2, 0]"] ;
331 -> 332 ;
333 [label="gini = 0.0\nsamples = 1\nvalue = [0, 1]"] ;
331 -> 333 ;
334 [label="X[2] <= 1300.0\ngini = 0.163\nsamples = 805\nvalue = [115, 1167]"] ;
316 -> 334 ;
335 [label="gini = 0.0\nsamples = 1\nvalue = [3, 0]"] ;
334 -> 335 ;
336 [label="X[6] <= 5.5\ngini = 0.16\nsamples = 804\nvalue = [112, 1167]"] ;
334 -> 336 ;
337 [label="X[6] <= 2.5\ngini = 0.106\nsamples = 431\nvalue = [38, 637]"] ;
336 -> 337 ;
338 [label="X[1] <= 4.5\ngini = 0.13\nsamples = 173\nvalue = [19, 253]"] ;
337 -> 338 ;
339 [label="X[3] <= 7.0\ngini = 0.111\nsamples = 96\nvalue = [9, 144]"] ;
338 -> 339 ;
340 [label="X[6] <= 1.5\ngini = 0.027\nsamples = 44\nvalue = [1, 71]"] ;
339 -> 340 ;
341 [label="X[0] <= 0.5\ngini = 0.053\nsamples = 23\nvalue = [1, 36]"] ;
340 -> 341 ;
342 [label="gini = 0.124\nsamples = 10\nvalue = [1, 14]"] ;
341 -> 342 ;
343 [label="gini = 0.0\nsamples = 13\nvalue = [0, 22]"] ;
341 -> 343 ;
344 [label="gini = 0.0\nsamples = 21\nvalue = [0, 35]"] ;
340 -> 344 ;
345 [label="X[6] <= 1.5\ngini = 0.178\nsamples = 52\nvalue = [8, 73]"] ;
339 -> 345 ;
346 [label="X[0] <= 1.5\ngini = 0.162\nsamples = 29\nvalue = [4, 41]"] ;
345 -> 346 ;
347 [label="X[0] <= 0.5\ngini = 0.245\nsamples = 17\nvalue = [4, 24]"] ;
346 -> 347 ;
348 [label="gini = 0.153\nsamples = 14\nvalue = [2, 22]"] ;
347 -> 348 ;
349 [label="gini = 0.5\nsamples = 3\nvalue = [2, 2]"] ;
347 -> 349 ;
350 [label="gini = 0.0\nsamples = 12\nvalue = [0, 17]"] ;
346 -> 350 ;
351 [label="X[0] <= 11.5\ngini = 0.198\nsamples = 23\nvalue = [4, 32]"] ;
345 -> 351 ;
352 [label="X[0] <= 1.0\ngini = 0.128\nsamples = 19\nvalue = [2, 27]"] ;
351 -> 352 ;
353 [label="gini = 0.298\nsamples = 7\nvalue = [2, 9]"] ;
352 -> 353 ;
354 [label="gini = 0.0\nsamples = 12\nvalue = [0, 18]"] ;
352 -> 354 ;
355 [label="X[0] <= 13.0\ngini = 0.408\nsamples = 4\nvalue = [2, 5]"] ;
351 -> 355 ;
356 [label="gini = 0.0\nsamples = 1\nvalue = [2, 0]"] ;
355 -> 356 ;
357 [label="gini = 0.0\nsamples = 3\nvalue = [0, 5]"] ;
355 -> 357 ;
358 [label="X[3] <= 7.0\ngini = 0.154\nsamples = 77\nvalue = [10, 109]"] ;
338 -> 358 ;
359 [label="X[0] <= 4.5\ngini = 0.146\nsamples = 64\nvalue = [8, 93]"] ;
358 -> 359 ;
360 [label="X[6] <= 1.5\ngini = 0.191\nsamples = 47\nvalue = [8, 67]"] ;
359 -> 360 ;
361 [label="X[0] <= 1.5\ngini = 0.102\nsamples = 23\nvalue = [2, 35]"] ;
360 -> 361 ;
362 [label="X[0] <= 0.5\ngini = 0.153\nsamples = 14\nvalue = [2, 22]"] ;
361 -> 362 ;
363 [label="gini = 0.0\nsamples = 8\nvalue = [0, 12]"] ;
362 -> 363 ;
364 [label="gini = 0.278\nsamples = 6\nvalue = [2, 10]"] ;
362 -> 364 ;
365 [label="gini = 0.0\nsamples = 9\nvalue = [0, 13]"] ;
361 -> 365 ;
366 [label="X[0] <= 3.5\ngini = 0.266\nsamples = 24\nvalue = [6, 32]"] ;
360 -> 366 ;
367 [label="X[0] <= 0.5\ngini = 0.234\nsamples = 23\nvalue = [5, 32]"] ;
366 -> 367 ;
368 [label="gini = 0.36\nsamples = 12\nvalue = [4, 13]"] ;
367 -> 368 ;
369 [label="X[0] <= 1.5\ngini = 0.095\nsamples = 11\nvalue = [1, 19]"] ;
367 -> 369 ;
370 [label="gini = 0.0\nsamples = 6\nvalue = [0, 12]"] ;
369 -> 370 ;
371 [label="X[0] <= 2.5\ngini = 0.219\nsamples = 5\nvalue = [1, 7]"] ;
369 -> 371 ;
372 [label="gini = 0.278\nsamples = 4\nvalue = [1, 5]"] ;
371 -> 372 ;
373 [label="gini = 0.0\nsamples = 1\nvalue = [0, 2]"] ;
371 -> 373 ;
374 [label="gini = 0.0\nsamples = 1\nvalue = [1, 0]"] ;
366 -> 374 ;
375 [label="gini = 0.0\nsamples = 17\nvalue = [0, 26]"] ;
359 -> 375 ;
376 [label="X[0] <= 11.5\ngini = 0.198\nsamples = 13\nvalue = [2, 16]"] ;
358 -> 376 ;
377 [label="gini = 0.0\nsamples = 11\nvalue = [0, 15]"] ;
376 -> 377 ;
378 [label="X[6] <= 1.5\ngini = 0.444\nsamples = 2\nvalue = [2, 1]"] ;
376 -> 378 ;
379 [label="gini = 0.0\nsamples = 1\nvalue = [2, 0]"] ;
378 -> 379 ;
380 [label="gini = 0.0\nsamples = 1\nvalue = [0, 1]"] ;
378 -> 380 ;
381 [label="X[6] <= 3.5\ngini = 0.09\nsamples = 258\nvalue = [19, 384]"] ;
337 -> 381 ;
382 [label="X[0] <= 0.5\ngini = 0.065\nsamples = 122\nvalue = [6, 173]"] ;
381 -> 382 ;
383 [label="X[3] <= 7.0\ngini = 0.183\nsamples = 31\nvalue = [5, 44]"] ;
382 -> 383 ;
384 [label="X[1] <= 4.5\ngini = 0.111\nsamples = 20\nvalue = [2, 32]"] ;
383 -> 384 ;
385 [label="gini = 0.219\nsamples = 12\nvalue = [2, 14]"] ;
384 -> 385 ;
386 [label="gini = 0.0\nsamples = 8\nvalue = [0, 18]"] ;
384 -> 386 ;
387 [label="X[1] <= 4.5\ngini = 0.32\nsamples = 11\nvalue = [3, 12]"] ;
383 -> 387 ;
388 [label="gini = 0.0\nsamples = 5\nvalue = [0, 6]"] ;
387 -> 388 ;
389 [label="gini = 0.444\nsamples = 6\nvalue = [3, 6]"] ;
387 -> 389 ;
390 [label="X[3] <= 7.0\ngini = 0.015\nsamples = 91\nvalue = [1, 129]"] ;
382 -> 390 ;
391 [label="X[0] <= 1.5\ngini = 0.029\nsamples = 48\nvalue = [1, 68]"] ;
390 -> 391 ;
392 [label="gini = 0.0\nsamples = 22\nvalue = [0, 34]"] ;
391 -> 392 ;
393 [label="X[1] <= 4.5\ngini = 0.056\nsamples = 26\nvalue = [1, 34]"] ;
391 -> 393 ;
394 [label="gini = 0.0\nsamples = 12\nvalue = [0, 17]"] ;
393 -> 394 ;
395 [label="X[0] <= 2.5\ngini = 0.105\nsamples = 14\nvalue = [1, 17]"] ;
393 -> 395 ;
396 [label="gini = 0.278\nsamples = 4\nvalue = [1, 5]"] ;
395 -> 396 ;
397 [label="gini = 0.0\nsamples = 10\nvalue = [0, 12]"] ;
395 -> 397 ;
398 [label="gini = 0.0\nsamples = 43\nvalue = [0, 61]"] ;
390 -> 398 ;
399 [label="X[0] <= 10.5\ngini = 0.109\nsamples = 136\nvalue = [13, 211]"] ;
381 -> 399 ;
400 [label="X[6] <= 4.5\ngini = 0.126\nsamples = 118\nvalue = [13, 179]"] ;
399 -> 400 ;
401 [label="X[1] <= 4.5\ngini = 0.113\nsamples = 62\nvalue = [6, 94]"] ;
400 -> 401 ;
402 [label="X[3] <= 7.0\ngini = 0.12\nsamples = 31\nvalue = [3, 44]"] ;
401 -> 402 ;
403 [label="X[0] <= 4.5\ngini = 0.142\nsamples = 27\nvalue = [3, 36]"] ;
402 -> 403 ;
404 [label="X[0] <= 3.5\ngini = 0.175\nsamples = 22\nvalue = [3, 28]"] ;
403 -> 404 ;
405 [label="X[0] <= 0.5\ngini = 0.128\nsamples = 20\nvalue = [2, 27]"] ;
404 -> 405 ;
406 [label="gini = 0.18\nsamples = 13\nvalue = [2, 18]"] ;
405 -> 406 ;
407 [label="gini = 0.0\nsamples = 7\nvalue = [0, 9]"] ;
405 -> 407 ;
408 [label="gini = 0.5\nsamples = 2\nvalue = [1, 1]"] ;
404 -> 408 ;
409 [label="gini = 0.0\nsamples = 5\nvalue = [0, 8]"] ;
403 -> 409 ;
410 [label="gini = 0.0\nsamples = 4\nvalue = [0, 8]"] ;
402 -> 410 ;
411 [label="X[3] <= 7.0\ngini = 0.107\nsamples = 31\nvalue = [3, 50]"] ;
401 -> 411 ;
412 [label="X[0] <= 8.5\ngini = 0.111\nsamples = 29\nvalue = [3, 48]"] ;
411 -> 412 ;
413 [label="gini = 0.0\nsamples = 28\nvalue = [0, 48]"] ;
412 -> 413 ;
414 [label="gini = 0.0\nsamples = 1\nvalue = [3, 0]"] ;
412 -> 414 ;
415 [label="gini = 0.0\nsamples = 2\nvalue = [0, 2]"] ;
411 -> 415 ;
416 [label="X[8] <= 50.5\ngini = 0.141\nsamples = 56\nvalue = [7, 85]"] ;
400 -> 416 ;
417 [label="X[8] <= 24.742\ngini = 0.028\nsamples = 40\nvalue = [1, 70]"] ;
416 -> 417 ;
418 [label="X[0] <= 1.5\ngini = 0.029\nsamples = 38\nvalue = [1, 66]"] ;
417 -> 418 ;
419 [label="gini = 0.0\nsamples = 19\nvalue = [0, 36]"] ;
418 -> 419 ;
420 [label="X[1] <= 4.5\ngini = 0.062\nsamples = 19\nvalue = [1, 30]"] ;
418 -> 420 ;
421 [label="gini = 0.0\nsamples = 3\nvalue = [0, 4]"] ;
420 -> 421 ;
422 [label="X[0] <= 2.5\ngini = 0.071\nsamples = 16\nvalue = [1, 26]"] ;
420 -> 422 ;
423 [label="gini = 0.5\nsamples = 2\nvalue = [1, 1]"] ;
422 -> 423 ;
424 [label="gini = 0.0\nsamples = 14\nvalue = [0, 25]"] ;
422 -> 424 ;
425 [label="gini = 0.0\nsamples = 2\nvalue = [0, 4]"] ;
417 -> 425 ;
426 [label="X[8] <= 53.5\ngini = 0.408\nsamples = 16\nvalue = [6, 15]"] ;
416 -> 426 ;
427 [label="X[0] <= 4.0\ngini = 0.32\nsamples = 4\nvalue = [4, 1]"] ;
426 -> 427 ;
428 [label="gini = 0.0\nsamples = 2\nvalue = [3, 0]"] ;
427 -> 428 ;
429 [label="gini = 0.5\nsamples = 2\nvalue = [1, 1]"] ;
427 -> 429 ;
430 [label="X[0] <= 0.5\ngini = 0.219\nsamples = 12\nvalue = [2, 14]"] ;
426 -> 430 ;
431 [label="X[8] <= 80.0\ngini = 0.408\nsamples = 4\nvalue = [2, 5]"] ;
430 -> 431 ;
432 [label="X[8] <= 54.5\ngini = 0.5\nsamples = 2\nvalue = [2, 2]"] ;
431 -> 432 ;
433 [label="gini = 0.0\nsamples = 1\nvalue = [0, 2]"] ;
432 -> 433 ;
434 [label="gini = 0.0\nsamples = 1\nvalue = [2, 0]"] ;
432 -> 434 ;
435 [label="gini = 0.0\nsamples = 2\nvalue = [0, 3]"] ;
431 -> 435 ;
436 [label="gini = 0.0\nsamples = 8\nvalue = [0, 9]"] ;
430 -> 436 ;
437 [label="gini = 0.0\nsamples = 18\nvalue = [0, 32]"] ;
399 -> 437 ;
438 [label="X[8] <= 91.5\ngini = 0.215\nsamples = 373\nvalue = [74, 530]"] ;
336 -> 438 ;
439 [label="X[2] <= 9865.0\ngini = 0.238\nsamples = 331\nvalue = [74, 461]"] ;
438 -> 439 ;
440 [label="gini = 0.0\nsamples = 10\nvalue = [0, 17]"] ;
439 -> 440 ;
441 [label="X[0] <= 2.5\ngini = 0.245\nsamples = 321\nvalue = [74, 444]"] ;
439 -> 441 ;
442 [label="X[3] <= 7.0\ngini = 0.162\nsamples = 191\nvalue = [28, 288]"] ;
441 -> 442 ;
443 [label="X[1] <= 4.5\ngini = 0.219\nsamples = 112\nvalue = [24, 168]"] ;
442 -> 443 ;
444 [label="X[0] <= 0.5\ngini = 0.205\nsamples = 61\nvalue = [13, 99]"] ;
443 -> 444 ;
445 [label="X[6] <= 9.5\ngini = 0.252\nsamples = 29\nvalue = [9, 52]"] ;
444 -> 445 ;
446 [label="X[6] <= 6.5\ngini = 0.169\nsamples = 19\nvalue = [4, 39]"] ;
445 -> 446 ;
447 [label="X[8] <= 53.0\ngini = 0.375\nsamples = 7\nvalue = [4, 12]"] ;
446 -> 447 ;
448 [label="gini = 0.0\nsamples = 2\nvalue = [0, 8]"] ;
447 -> 448 ;
449 [label="X[8] <= 59.0\ngini = 0.5\nsamples = 5\nvalue = [4, 4]"] ;
447 -> 449 ;
450 [label="X[8] <= 56.0\ngini = 0.444\nsamples = 3\nvalue = [4, 2]"] ;
449 -> 450 ;
451 [label="X[8] <= 54.5\ngini = 0.444\nsamples = 2\nvalue = [1, 2]"] ;
450 -> 451 ;
452 [label="gini = 0.0\nsamples = 1\nvalue = [1, 0]"] ;
451 -> 452 ;
453 [label="gini = 0.0\nsamples = 1\nvalue = [0, 2]"] ;
451 -> 453 ;
454 [label="gini = 0.0\nsamples = 1\nvalue = [3, 0]"] ;
450 -> 454 ;
455 [label="gini = 0.0\nsamples = 2\nvalue = [0, 2]"] ;
449 -> 455 ;
456 [label="gini = 0.0\nsamples = 12\nvalue = [0, 27]"] ;
446 -> 456 ;
457 [label="X[8] <= 27.242\ngini = 0.401\nsamples = 10\nvalue = [5, 13]"] ;
445 -> 457 ;
458 [label="gini = 0.0\nsamples = 6\nvalue = [0, 8]"] ;
457 -> 458 ;
459 [label="X[8] <= 52.0\ngini = 0.5\nsamples = 4\nvalue = [5, 5]"] ;
457 -> 459 ;
460 [label="gini = 0.0\nsamples = 2\nvalue = [5, 0]"] ;
459 -> 460 ;
461 [label="gini = 0.0\nsamples = 2\nvalue = [0, 5]"] ;
459 -> 461 ;
462 [label="X[8] <= 54.5\ngini = 0.145\nsamples = 32\nvalue = [4, 47]"] ;
444 -> 462 ;
463 [label="X[6] <= 6.5\ngini = 0.208\nsamples = 23\nvalue = [4, 30]"] ;
462 -> 463 ;
464 [label="X[8] <= 29.242\ngini = 0.48\nsamples = 2\nvalue = [2, 3]"] ;
463 -> 464 ;
465 [label="gini = 0.0\nsamples = 1\nvalue = [0, 3]"] ;
464 -> 465 ;
466 [label="gini = 0.0\nsamples = 1\nvalue = [2, 0]"] ;
464 -> 466 ;
467 [label="X[0] <= 1.5\ngini = 0.128\nsamples = 21\nvalue = [2, 27]"] ;
463 -> 467 ;
468 [label="X[8] <= 29.242\ngini = 0.1\nsamples = 12\nvalue = [1, 18]"] ;
467 -> 468 ;
469 [label="X[6] <= 9.5\ngini = 0.142\nsamples = 8\nvalue = [1, 12]"] ;
468 -> 469 ;
470 [label="gini = 0.0\nsamples = 1\nvalue = [1, 0]"] ;
469 -> 470 ;
471 [label="gini = 0.0\nsamples = 7\nvalue = [0, 12]"] ;
469 -> 471 ;
472 [label="gini = 0.0\nsamples = 4\nvalue = [0, 6]"] ;
468 -> 472 ;
473 [label="X[8] <= 27.242\ngini = 0.18\nsamples = 9\nvalue = [1, 9]"] ;
467 -> 473 ;
474 [label="X[6] <= 9.0\ngini = 0.219\nsamples = 8\nvalue = [1, 7]"] ;
473 -> 474 ;
475 [label="X[6] <= 7.5\ngini = 0.375\nsamples = 4\nvalue = [1, 3]"] ;
474 -> 475 ;
476 [label="gini = 0.0\nsamples = 3\nvalue = [0, 3]"] ;
475 -> 476 ;
477 [label="gini = 0.0\nsamples = 1\nvalue = [1, 0]"] ;
475 -> 477 ;
478 [label="gini = 0.0\nsamples = 4\nvalue = [0, 4]"] ;
474 -> 478 ;
479 [label="gini = 0.0\nsamples = 1\nvalue = [0, 2]"] ;
473 -> 479 ;
480 [label="gini = 0.0\nsamples = 9\nvalue = [0, 17]"] ;
462 -> 480 ;
481 [label="X[0] <= 1.5\ngini = 0.237\nsamples = 51\nvalue = [11, 69]"] ;
443 -> 481 ;
482 [label="X[0] <= 0.5\ngini = 0.282\nsamples = 41\nvalue = [10, 49]"] ;
481 -> 482 ;
483 [label="X[6] <= 7.5\ngini = 0.285\nsamples = 21\nvalue = [5, 24]"] ;
482 -> 483 ;
484 [label="X[6] <= 6.5\ngini = 0.444\nsamples = 9\nvalue = [5, 10]"] ;
483 -> 484 ;
485 [label="X[8] <= 54.5\ngini = 0.375\nsamples = 5\nvalue = [2, 6]"] ;
484 -> 485 ;
486 [label="gini = 0.0\nsamples = 3\nvalue = [0, 4]"] ;
485 -> 486 ;
487 [label="gini = 0.5\nsamples = 2\nvalue = [2, 2]"] ;
485 -> 487 ;
488 [label="X[8] <= 29.742\ngini = 0.49\nsamples = 4\nvalue = [3, 4]"] ;
484 -> 488 ;
489 [label="gini = 0.0\nsamples = 1\nvalue = [3, 0]"] ;
488 -> 489 ;
490 [label="gini = 0.0\nsamples = 3\nvalue = [0, 4]"] ;
488 -> 490 ;
491 [label="gini = 0.0\nsamples = 12\nvalue = [0, 14]"] ;
483 -> 491 ;
492 [label="X[8] <= 52.0\ngini = 0.278\nsamples = 20\nvalue = [5, 25]"] ;
482 -> 492 ;
493 [label="X[8] <= 27.242\ngini = 0.486\nsamples = 7\nvalue = [5, 7]"] ;
492 -> 493 ;
494 [label="X[6] <= 7.5\ngini = 0.463\nsamples = 6\nvalue = [4, 7]"] ;
493 -> 494 ;
495 [label="gini = 0.0\nsamples = 1\nvalue = [0, 1]"] ;
494 -> 495 ;
496 [label="X[6] <= 9.0\ngini = 0.48\nsamples = 5\nvalue = [4, 6]"] ;
494 -> 496 ;
497 [label="gini = 0.5\nsamples = 3\nvalue = [3, 3]"] ;
496 -> 497 ;
498 [label="gini = 0.375\nsamples = 2\nvalue = [1, 3]"] ;
496 -> 498 ;
499 [label="gini = 0.0\nsamples = 1\nvalue = [1, 0]"] ;
493 -> 499 ;
500 [label="gini = 0.0\nsamples = 13\nvalue = [0, 18]"] ;
492 -> 500 ;
501 [label="X[6] <= 7.0\ngini = 0.091\nsamples = 10\nvalue = [1, 20]"] ;
481 -> 501 ;
502 [label="X[8] <= 52.0\ngini = 0.444\nsamples = 2\nvalue = [1, 2]"] ;
501 -> 502 ;
503 [label="gini = 0.0\nsamples = 1\nvalue = [0, 2]"] ;
502 -> 503 ;
504 [label="gini = 0.0\nsamples = 1\nvalue = [1, 0]"] ;
502 -> 504 ;
505 [label="gini = 0.0\nsamples = 8\nvalue = [0, 18]"] ;
501 -> 505 ;
506 [label="X[0] <= 0.5\ngini = 0.062\nsamples = 79\nvalue = [4, 120]"] ;
442 -> 506 ;
507 [label="X[1] <= 4.5\ngini = 0.073\nsamples = 66\nvalue = [4, 101]"] ;
506 -> 507 ;
508 [label="X[6] <= 9.5\ngini = 0.083\nsamples = 56\nvalue = [4, 88]"] ;
507 -> 508 ;
509 [label="gini = 0.0\nsamples = 19\nvalue = [0, 27]"] ;
508 -> 509 ;
510 [label="gini = 0.116\nsamples = 37\nvalue = [4, 61]"] ;
508 -> 510 ;
511 [label="gini = 0.0\nsamples = 10\nvalue = [0, 13]"] ;
507 -> 511 ;
512 [label="gini = 0.0\nsamples = 13\nvalue = [0, 19]"] ;
506 -> 512 ;
513 [label="X[2] <= 13605.0\ngini = 0.352\nsamples = 130\nvalue = [46, 156]"] ;
441 -> 513 ;
514 [label="gini = 0.0\nsamples = 1\nvalue = [3, 0]"] ;
513 -> 514 ;
515 [label="X[8] <= 76.5\ngini = 0.339\nsamples = 129\nvalue = [43, 156]"] ;
513 -> 515 ;
516 [label="X[3] <= 7.0\ngini = 0.306\nsamples = 125\nvalue = [36, 155]"] ;
515 -> 516 ;
517 [label="X[6] <= 7.5\ngini = 0.319\nsamples = 116\nvalue = [36, 145]"] ;
516 -> 517 ;
518 [label="X[0] <= 4.5\ngini = 0.448\nsamples = 40\nvalue = [22, 43]"] ;
517 -> 518 ;
519 [label="X[8] <= 58.0\ngini = 0.457\nsamples = 12\nvalue = [11, 6]"] ;
518 -> 519 ;
520 [label="X[8] <= 51.5\ngini = 0.391\nsamples = 10\nvalue = [11, 4]"] ;
519 -> 520 ;
521 [label="X[6] <= 6.5\ngini = 0.426\nsamples = 8\nvalue = [9, 4]"] ;
520 -> 521 ;
522 [label="X[1] <= 4.5\ngini = 0.375\nsamples = 4\nvalue = [3, 1]"] ;
521 -> 522 ;
523 [label="gini = 0.0\nsamples = 2\nvalue = [2, 0]"] ;
522 -> 523 ;
524 [label="X[8] <= 26.742\ngini = 0.5\nsamples = 2\nvalue = [1, 1]"] ;
522 -> 524 ;
525 [label="gini = 0.0\nsamples = 1\nvalue = [1, 0]"] ;
524 -> 525 ;
526 [label="gini = 0.0\nsamples = 1\nvalue = [0, 1]"] ;
524 -> 526 ;
527 [label="X[0] <= 3.5\ngini = 0.444\nsamples = 4\nvalue = [6, 3]"] ;
521 -> 527 ;
528 [label="X[1] <= 4.5\ngini = 0.48\nsamples = 2\nvalue = [3, 2]"] ;
527 -> 528 ;
529 [label="gini = 0.0\nsamples = 1\nvalue = [0, 2]"] ;
528 -> 529 ;
530 [label="gini = 0.0\nsamples = 1\nvalue = [3, 0]"] ;
528 -> 530 ;
531 [label="X[8] <= 4.742\ngini = 0.375\nsamples = 2\nvalue = [3, 1]"] ;
527 -> 531 ;
532 [label="gini = 0.0\nsamples = 1\nvalue = [0, 1]"] ;
531 -> 532 ;
533 [label="gini = 0.0\nsamples = 1\nvalue = [3, 0]"] ;
531 -> 533 ;
534 [label="gini = 0.0\nsamples = 2\nvalue = [2, 0]"] ;
520 -> 534 ;
535 [label="gini = 0.0\nsamples = 2\nvalue = [0, 2]"] ;
519 -> 535 ;
536 [label="X[8] <= 55.0\ngini = 0.353\nsamples = 28\nvalue = [11, 37]"] ;
518 -> 536 ;
537 [label="X[6] <= 6.5\ngini = 0.399\nsamples = 22\nvalue = [11, 29]"] ;
536 -> 537 ;
538 [label="X[8] <= 29.242\ngini = 0.457\nsamples = 9\nvalue = [6, 11]"] ;
537 -> 538 ;
539 [label="X[0] <= 15.5\ngini = 0.5\nsamples = 6\nvalue = [6, 6]"] ;
538 -> 539 ;
540 [label="X[1] <= 4.5\ngini = 0.48\nsamples = 5\nvalue = [4, 6]"] ;
539 -> 540 ;
541 [label="X[0] <= 10.5\ngini = 0.32\nsamples = 3\nvalue = [4, 1]"] ;
540 -> 541 ;
542 [label="X[0] <= 7.5\ngini = 0.5\nsamples = 2\nvalue = [1, 1]"] ;
541 -> 542 ;
543 [label="gini = 0.0\nsamples = 1\nvalue = [1, 0]"] ;
542 -> 543 ;
544 [label="gini = 0.0\nsamples = 1\nvalue = [0, 1]"] ;
542 -> 544 ;
545 [label="gini = 0.0\nsamples = 1\nvalue = [3, 0]"] ;
541 -> 545 ;
546 [label="gini = 0.0\nsamples = 2\nvalue = [0, 5]"] ;
540 -> 546 ;
547 [label="gini = 0.0\nsamples = 1\nvalue = [2, 0]"] ;
539 -> 547 ;
548 [label="gini = 0.0\nsamples = 3\nvalue = [0, 5]"] ;
538 -> 548 ;
549 [label="X[8] <= 29.242\ngini = 0.34\nsamples = 13\nvalue = [5, 18]"] ;
537 -> 549 ;
550 [label="X[0] <= 8.5\ngini = 0.245\nsamples = 12\nvalue = [3, 18]"] ;
549 -> 550 ;
551 [label="X[0] <= 7.5\ngini = 0.5\nsamples = 3\nvalue = [2, 2]"] ;
550 -> 551 ;
552 [label="X[1] <= 4.5\ngini = 0.444\nsamples = 2\nvalue = [1, 2]"] ;
551 -> 552 ;
553 [label="gini = 0.0\nsamples = 1\nvalue = [1, 0]"] ;
552 -> 553 ;
554 [label="gini = 0.0\nsamples = 1\nvalue = [0, 2]"] ;
552 -> 554 ;
555 [label="gini = 0.0\nsamples = 1\nvalue = [1, 0]"] ;
551 -> 555 ;
556 [label="X[1] <= 4.5\ngini = 0.111\nsamples = 9\nvalue = [1, 16]"] ;
550 -> 556 ;
557 [label="gini = 0.0\nsamples = 4\nvalue = [0, 9]"] ;
556 -> 557 ;
558 [label="X[0] <= 12.5\ngini = 0.219\nsamples = 5\nvalue = [1, 7]"] ;
556 -> 558 ;
559 [label="X[0] <= 10.5\ngini = 0.375\nsamples = 3\nvalue = [1, 3]"] ;
558 -> 559 ;
560 [label="gini = 0.0\nsamples = 1\nvalue = [0, 1]"] ;
559 -> 560 ;
561 [label="gini = 0.444\nsamples = 2\nvalue = [1, 2]"] ;
559 -> 561 ;
562 [label="gini = 0.0\nsamples = 2\nvalue = [0, 4]"] ;
558 -> 562 ;
563 [label="gini = 0.0\nsamples = 1\nvalue = [2, 0]"] ;
549 -> 563 ;
564 [label="gini = 0.0\nsamples = 6\nvalue = [0, 8]"] ;
536 -> 564 ;
565 [label="X[0] <= 4.5\ngini = 0.212\nsamples = 76\nvalue = [14, 102]"] ;
517 -> 565 ;
566 [label="X[6] <= 8.5\ngini = 0.424\nsamples = 23\nvalue = [11, 25]"] ;
565 -> 566 ;
567 [label="X[1] <= 4.5\ngini = 0.49\nsamples = 10\nvalue = [6, 8]"] ;
566 -> 567 ;
568 [label="X[8] <= 29.242\ngini = 0.48\nsamples = 7\nvalue = [4, 6]"] ;
567 -> 568 ;
569 [label="X[0] <= 3.5\ngini = 0.32\nsamples = 4\nvalue = [4, 1]"] ;
568 -> 569 ;
570 [label="gini = 0.444\nsamples = 2\nvalue = [2, 1]"] ;
569 -> 570 ;
571 [label="gini = 0.0\nsamples = 2\nvalue = [2, 0]"] ;
569 -> 571 ;
572 [label="gini = 0.0\nsamples = 3\nvalue = [0, 5]"] ;
568 -> 572 ;
573 [label="X[0] <= 3.5\ngini = 0.5\nsamples = 3\nvalue = [2, 2]"] ;
567 -> 573 ;
574 [label="gini = 0.0\nsamples = 1\nvalue = [0, 1]"] ;
573 -> 574 ;
575 [label="X[8] <= 58.0\ngini = 0.444\nsamples = 2\nvalue = [2, 1]"] ;
573 -> 575 ;
576 [label="gini = 0.0\nsamples = 1\nvalue = [2, 0]"] ;
575 -> 576 ;
577 [label="gini = 0.0\nsamples = 1\nvalue = [0, 1]"] ;
575 -> 577 ;
578 [label="X[8] <= 50.0\ngini = 0.351\nsamples = 13\nvalue = [5, 17]"] ;
566 -> 578 ;
579 [label="gini = 0.0\nsamples = 7\nvalue = [0, 10]"] ;
578 -> 579 ;
580 [label="X[0] <= 3.5\ngini = 0.486\nsamples = 6\nvalue = [5, 7]"] ;
578 -> 580 ;
581 [label="gini = 0.0\nsamples = 1\nvalue = [0, 2]"] ;
580 -> 581 ;
582 [label="X[2] <= 15104.052\ngini = 0.5\nsamples = 5\nvalue = [5, 5]"] ;
580 -> 582 ;
583 [label="gini = 0.0\nsamples = 1\nvalue = [0, 1]"] ;
582 -> 583 ;
584 [label="X[8] <= 56.5\ngini = 0.494\nsamples = 4\nvalue = [5, 4]"] ;
582 -> 584 ;
585 [label="gini = 0.0\nsamples = 2\nvalue = [5, 0]"] ;
584 -> 585 ;
586 [label="gini = 0.0\nsamples = 2\nvalue = [0, 4]"] ;
584 -> 586 ;
587 [label="X[0] <= 11.5\ngini = 0.072\nsamples = 53\nvalue = [3, 77]"] ;
565 -> 587 ;
588 [label="X[6] <= 8.5\ngini = 0.036\nsamples = 34\nvalue = [1, 53]"] ;
587 -> 588 ;
589 [label="X[8] <= 33.742\ngini = 0.117\nsamples = 10\nvalue = [1, 15]"] ;
588 -> 589 ;
590 [label="X[1] <= 4.5\ngini = 0.124\nsamples = 9\nvalue = [1, 14]"] ;
589 -> 590 ;
591 [label="X[0] <= 6.5\ngini = 0.245\nsamples = 5\nvalue = [1, 6]"] ;
590 -> 591 ;
592 [label="gini = 0.0\nsamples = 2\nvalue = [0, 2]"] ;
591 -> 592 ;
593 [label="X[0] <= 8.0\ngini = 0.32\nsamples = 3\nvalue = [1, 4]"] ;
591 -> 593 ;
594 [label="gini = 0.444\nsamples = 2\nvalue = [1, 2]"] ;
593 -> 594 ;
595 [label="gini = 0.0\nsamples = 1\nvalue = [0, 2]"] ;
593 -> 595 ;
596 [label="gini = 0.0\nsamples = 4\nvalue = [0, 8]"] ;
590 -> 596 ;
597 [label="gini = 0.0\nsamples = 1\nvalue = [0, 1]"] ;
589 -> 597 ;
598 [label="gini = 0.0\nsamples = 24\nvalue = [0, 38]"] ;
588 -> 598 ;
599 [label="X[0] <= 14.5\ngini = 0.142\nsamples = 19\nvalue = [2, 24]"] ;
587 -> 599 ;
600 [label="X[6] <= 8.5\ngini = 0.26\nsamples = 9\nvalue = [2, 11]"] ;
599 -> 600 ;
601 [label="X[8] <= 58.5\ngini = 0.346\nsamples = 6\nvalue = [2, 7]"] ;
600 -> 601 ;
602 [label="X[8] <= 54.5\ngini = 0.444\nsamples = 5\nvalue = [2, 4]"] ;
601 -> 602 ;
603 [label="X[2] <= 19544.052\ngini = 0.32\nsamples = 4\nvalue = [1, 4]"] ;
602 -> 603 ;
604 [label="X[1] <= 4.5\ngini = 0.444\nsamples = 3\nvalue = [1, 2]"] ;
603 -> 604 ;
605 [label="gini = 0.0\nsamples = 1\nvalue = [0, 1]"] ;
604 -> 605 ;
606 [label="X[0] <= 13.5\ngini = 0.5\nsamples = 2\nvalue = [1, 1]"] ;
604 -> 606 ;
607 [label="gini = 0.0\nsamples = 1\nvalue = [0, 1]"] ;
606 -> 607 ;
608 [label="gini = 0.0\nsamples = 1\nvalue = [1, 0]"] ;
606 -> 608 ;
609 [label="gini = 0.0\nsamples = 1\nvalue = [0, 2]"] ;
603 -> 609 ;
610 [label="gini = 0.0\nsamples = 1\nvalue = [1, 0]"] ;
602 -> 610 ;
611 [label="gini = 0.0\nsamples = 1\nvalue = [0, 3]"] ;
601 -> 611 ;
612 [label="gini = 0.0\nsamples = 3\nvalue = [0, 4]"] ;
600 -> 612 ;
613 [label="gini = 0.0\nsamples = 10\nvalue = [0, 13]"] ;
599 -> 613 ;
614 [label="gini = 0.0\nsamples = 9\nvalue = [0, 10]"] ;
516 -> 614 ;
615 [label="X[0] <= 4.5\ngini = 0.219\nsamples = 4\nvalue = [7, 1]"] ;
515 -> 615 ;
616 [label="gini = 0.0\nsamples = 1\nvalue = [0, 1]"] ;
615 -> 616 ;
617 [label="gini = 0.0\nsamples = 3\nvalue = [7, 0]"] ;
615 -> 617 ;
618 [label="gini = 0.0\nsamples = 42\nvalue = [0, 69]"] ;
438 -> 618 ;
619 [label="X[2] <= 312.5\ngini = 0.339\nsamples = 140\nvalue = [46, 167]"] ;
315 -> 619 ;
620 [label="gini = 0.0\nsamples = 8\nvalue = [0, 14]"] ;
619 -> 620 ;
621 [label="X[2] <= 660.0\ngini = 0.355\nsamples = 132\nvalue = [46, 153]"] ;
619 -> 621 ;
622 [label="gini = 0.0\nsamples = 2\nvalue = [4, 0]"] ;
621 -> 622 ;
623 [label="X[3] <= 7.0\ngini = 0.338\nsamples = 130\nvalue = [42, 153]"] ;
621 -> 623 ;
624 [label="X[6] <= 9.5\ngini = 0.199\nsamples = 66\nvalue = [11, 87]"] ;
623 -> 624 ;
625 [label="X[6] <= 7.5\ngini = 0.167\nsamples = 59\nvalue = [8, 79]"] ;
624 -> 625 ;
626 [label="X[8] <= 9.242\ngini = 0.198\nsamples = 48\nvalue = [8, 64]"] ;
625 -> 626 ;
627 [label="X[6] <= 5.5\ngini = 0.205\nsamples = 46\nvalue = [8, 61]"] ;
626 -> 627 ;
628 [label="X[1] <= 17.5\ngini = 0.15\nsamples = 39\nvalue = [5, 56]"] ;
627 -> 628 ;
629 [label="X[0] <= 0.5\ngini = 0.074\nsamples = 35\nvalue = [2, 50]"] ;
628 -> 629 ;
630 [label="gini = 0.0\nsamples = 17\nvalue = [0, 30]"] ;
629 -> 630 ;
631 [label="X[0] <= 5.5\ngini = 0.165\nsamples = 18\nvalue = [2, 20]"] ;
629 -> 631 ;
632 [label="X[1] <= 9.5\ngini = 0.208\nsamples = 14\nvalue = [2, 15]"] ;
631 -> 632 ;
633 [label="gini = 0.0\nsamples = 7\nvalue = [0, 10]"] ;
632 -> 633 ;
634 [label="X[0] <= 2.5\ngini = 0.408\nsamples = 7\nvalue = [2, 5]"] ;
632 -> 634 ;
635 [label="X[1] <= 13.0\ngini = 0.278\nsamples = 6\nvalue = [1, 5]"] ;
634 -> 635 ;
636 [label="X[6] <= 3.5\ngini = 0.5\nsamples = 2\nvalue = [1, 1]"] ;
635 -> 636 ;
637 [label="gini = 0.0\nsamples = 1\nvalue = [1, 0]"] ;
636 -> 637 ;
638 [label="gini = 0.0\nsamples = 1\nvalue = [0, 1]"] ;
636 -> 638 ;
639 [label="gini = 0.0\nsamples = 4\nvalue = [0, 4]"] ;
635 -> 639 ;
640 [label="gini = 0.0\nsamples = 1\nvalue = [1, 0]"] ;
634 -> 640 ;
641 [label="gini = 0.0\nsamples = 4\nvalue = [0, 5]"] ;
631 -> 641 ;
642 [label="X[1] <= 18.5\ngini = 0.444\nsamples = 4\nvalue = [3, 6]"] ;
628 -> 642 ;
643 [label="gini = 0.0\nsamples = 1\nvalue = [1, 0]"] ;
642 -> 643 ;
644 [label="X[0] <= 1.0\ngini = 0.375\nsamples = 3\nvalue = [2, 6]"] ;
642 -> 644 ;
645 [label="gini = 0.48\nsamples = 2\nvalue = [2, 3]"] ;
644 -> 645 ;
646 [label="gini = 0.0\nsamples = 1\nvalue = [0, 3]"] ;
644 -> 646 ;
647 [label="X[8] <= 2.242\ngini = 0.469\nsamples = 7\nvalue = [3, 5]"] ;
627 -> 647 ;
648 [label="gini = 0.0\nsamples = 1\nvalue = [0, 1]"] ;
647 -> 648 ;
649 [label="X[0] <= 2.0\ngini = 0.49\nsamples = 6\nvalue = [3, 4]"] ;
647 -> 649 ;
650 [label="gini = 0.0\nsamples = 1\nvalue = [0, 2]"] ;
649 -> 650 ;
651 [label="X[1] <= 9.5\ngini = 0.48\nsamples = 5\nvalue = [3, 2]"] ;
649 -> 651 ;
652 [label="X[0] <= 14.5\ngini = 0.444\nsamples = 3\nvalue = [2, 1]"] ;
651 -> 652 ;
653 [label="gini = 0.0\nsamples = 2\nvalue = [2, 0]"] ;
652 -> 653 ;
654 [label="gini = 0.0\nsamples = 1\nvalue = [0, 1]"] ;
652 -> 654 ;
655 [label="X[0] <= 14.0\ngini = 0.5\nsamples = 2\nvalue = [1, 1]"] ;
651 -> 655 ;
656 [label="gini = 0.0\nsamples = 1\nvalue = [0, 1]"] ;
655 -> 656 ;
657 [label="gini = 0.0\nsamples = 1\nvalue = [1, 0]"] ;
655 -> 657 ;
658 [label="gini = 0.0\nsamples = 2\nvalue = [0, 3]"] ;
626 -> 658 ;
659 [label="gini = 0.0\nsamples = 11\nvalue = [0, 15]"] ;
625 -> 659 ;
660 [label="X[8] <= 2.242\ngini = 0.397\nsamples = 7\nvalue = [3, 8]"] ;
624 -> 660 ;
661 [label="gini = 0.0\nsamples = 1\nvalue = [1, 0]"] ;
660 -> 661 ;
662 [label="X[1] <= 9.5\ngini = 0.32\nsamples = 6\nvalue = [2, 8]"] ;
660 -> 662 ;
663 [label="gini = 0.0\nsamples = 1\nvalue = [2, 0]"] ;
662 -> 663 ;
664 [label="gini = 0.0\nsamples = 5\nvalue = [0, 8]"] ;
662 -> 664 ;
665 [label="X[6] <= 8.5\ngini = 0.435\nsamples = 64\nvalue = [31, 66]"] ;
623 -> 665 ;
666 [label="X[1] <= 23.5\ngini = 0.208\nsamples = 34\nvalue = [6, 45]"] ;
665 -> 666 ;
667 [label="X[1] <= 9.5\ngini = 0.236\nsamples = 30\nvalue = [6, 38]"] ;
666 -> 667 ;
668 [label="gini = 0.0\nsamples = 2\nvalue = [0, 2]"] ;
667 -> 668 ;
669 [label="X[0] <= 1.0\ngini = 0.245\nsamples = 28\nvalue = [6, 36]"] ;
667 -> 669 ;
670 [label="X[1] <= 13.5\ngini = 0.272\nsamples = 26\nvalue = [6, 31]"] ;
669 -> 670 ;
671 [label="X[6] <= 2.5\ngini = 0.408\nsamples = 5\nvalue = [2, 5]"] ;
670 -> 671 ;
672 [label="X[6] <= 1.5\ngini = 0.5\nsamples = 3\nvalue = [2, 2]"] ;
671 -> 672 ;
673 [label="gini = 0.0\nsamples = 2\nvalue = [0, 2]"] ;
672 -> 673 ;
674 [label="gini = 0.0\nsamples = 1\nvalue = [2, 0]"] ;
672 -> 674 ;
675 [label="gini = 0.0\nsamples = 2\nvalue = [0, 3]"] ;
671 -> 675 ;
676 [label="gini = 0.231\nsamples = 21\nvalue = [4, 26]"] ;
670 -> 676 ;
677 [label="gini = 0.0\nsamples = 2\nvalue = [0, 5]"] ;
669 -> 677 ;
678 [label="gini = 0.0\nsamples = 4\nvalue = [0, 7]"] ;
666 -> 678 ;
679 [label="X[6] <= 9.5\ngini = 0.496\nsamples = 30\nvalue = [25, 21]"] ;
665 -> 679 ;
680 [label="X[1] <= 9.5\ngini = 0.494\nsamples = 6\nvalue = [4, 5]"] ;
679 -> 680 ;
681 [label="X[0] <= 0.5\ngini = 0.444\nsamples = 3\nvalue = [2, 1]"] ;
680 -> 681 ;
682 [label="gini = 0.0\nsamples = 2\nvalue = [2, 0]"] ;
681 -> 682 ;
683 [label="gini = 0.0\nsamples = 1\nvalue = [0, 1]"] ;
681 -> 683 ;
684 [label="X[1] <= 13.5\ngini = 0.444\nsamples = 3\nvalue = [2, 4]"] ;
680 -> 684 ;
685 [label="gini = 0.0\nsamples = 1\nvalue = [0, 2]"] ;
684 -> 685 ;
686 [label="gini = 0.5\nsamples = 2\nvalue = [2, 2]"] ;
684 -> 686 ;
687 [label="X[1] <= 9.5\ngini = 0.491\nsamples = 24\nvalue = [21, 16]"] ;
679 -> 687 ;
688 [label="gini = 0.408\nsamples = 4\nvalue = [5, 2]"] ;
687 -> 688 ;
689 [label="X[1] <= 13.5\ngini = 0.498\nsamples = 20\nvalue = [16, 14]"] ;
687 -> 689 ;
690 [label="gini = 0.0\nsamples = 1\nvalue = [0, 1]"] ;
689 -> 690 ;
691 [label="X[0] <= 1.5\ngini = 0.495\nsamples = 19\nvalue = [16, 13]"] ;
689 -> 691 ;
692 [label="gini = 0.499\nsamples = 18\nvalue = [14, 13]"] ;
691 -> 692 ;
693 [label="gini = 0.0\nsamples = 1\nvalue = [2, 0]"] ;
691 -> 693 ;
694 [label="X[1] <= 16.5\ngini = 0.401\nsamples = 147\nvalue = [63, 164]"] ;
314 -> 694 ;
695 [label="X[8] <= 186.5\ngini = 0.389\nsamples = 140\nvalue = [58, 161]"] ;
694 -> 695 ;
696 [label="X[8] <= 109.5\ngini = 0.367\nsamples = 135\nvalue = [51, 160]"] ;
695 -> 696 ;
697 [label="X[2] <= 1170.0\ngini = 0.388\nsamples = 121\nvalue = [50, 140]"] ;
696 -> 697 ;
698 [label="X[6] <= 6.5\ngini = 0.147\nsamples = 17\nvalue = [2, 23]"] ;
697 -> 698 ;
699 [label="gini = 0.0\nsamples = 9\nvalue = [0, 14]"] ;
698 -> 699 ;
700 [label="X[8] <= 102.0\ngini = 0.298\nsamples = 8\nvalue = [2, 9]"] ;
698 -> 700 ;
701 [label="X[2] <= 52.5\ngini = 0.18\nsamples = 7\nvalue = [1, 9]"] ;
700 -> 701 ;
702 [label="gini = 0.0\nsamples = 3\nvalue = [0, 4]"] ;
701 -> 702 ;
703 [label="X[2] <= 65.0\ngini = 0.278\nsamples = 4\nvalue = [1, 5]"] ;
701 -> 703 ;
704 [label="X[8] <= 59.0\ngini = 0.444\nsamples = 2\nvalue = [1, 2]"] ;
703 -> 704 ;
705 [label="gini = 0.0\nsamples = 1\nvalue = [1, 0]"] ;
704 -> 705 ;
706 [label="gini = 0.0\nsamples = 1\nvalue = [0, 2]"] ;
704 -> 706 ;
707 [label="gini = 0.0\nsamples = 2\nvalue = [0, 3]"] ;
703 -> 707 ;
708 [label="gini = 0.0\nsamples = 1\nvalue = [1, 0]"] ;
700 -> 708 ;
709 [label="X[0] <= 58.5\ngini = 0.413\nsamples = 104\nvalue = [48, 117]"] ;
697 -> 709 ;
710 [label="X[0] <= 37.5\ngini = 0.34\nsamples = 67\nvalue = [23, 83]"] ;
709 -> 710 ;
711 [label="X[8] <= 52.5\ngini = 0.399\nsamples = 48\nvalue = [22, 58]"] ;
710 -> 711 ;
712 [label="X[1] <= 4.5\ngini = 0.356\nsamples = 43\nvalue = [16, 53]"] ;
711 -> 712 ;
713 [label="X[1] <= 2.5\ngini = 0.165\nsamples = 19\nvalue = [3, 30]"] ;
712 -> 713 ;
714 [label="gini = 0.0\nsamples = 1\nvalue = [0, 2]"] ;
713 -> 714 ;
715 [label="X[8] <= 4.742\ngini = 0.175\nsamples = 18\nvalue = [3, 28]"] ;
713 -> 715 ;
716 [label="X[0] <= 26.5\ngini = 0.185\nsamples = 16\nvalue = [3, 26]"] ;
715 -> 716 ;
717 [label="X[6] <= 8.5\ngini = 0.42\nsamples = 7\nvalue = [3, 7]"] ;
716 -> 717 ;
718 [label="X[6] <= 4.5\ngini = 0.346\nsamples = 6\nvalue = [2, 7]"] ;
717 -> 718 ;
719 [label="gini = 0.0\nsamples = 2\nvalue = [0, 2]"] ;
718 -> 719 ;
720 [label="X[3] <= 7.0\ngini = 0.408\nsamples = 4\nvalue = [2, 5]"] ;
718 -> 720 ;
721 [label="X[0] <= 21.0\ngini = 0.5\nsamples = 3\nvalue = [2, 2]"] ;
720 -> 721 ;
722 [label="gini = 0.0\nsamples = 1\nvalue = [0, 2]"] ;
721 -> 722 ;
723 [label="gini = 0.0\nsamples = 2\nvalue = [2, 0]"] ;
721 -> 723 ;
724 [label="gini = 0.0\nsamples = 1\nvalue = [0, 3]"] ;
720 -> 724 ;
725 [label="gini = 0.0\nsamples = 1\nvalue = [1, 0]"] ;
717 -> 725 ;
726 [label="gini = 0.0\nsamples = 9\nvalue = [0, 19]"] ;
716 -> 726 ;
727 [label="gini = 0.0\nsamples = 2\nvalue = [0, 2]"] ;
715 -> 727 ;
728 [label="X[6] <= 6.5\ngini = 0.461\nsamples = 24\nvalue = [13, 23]"] ;
712 -> 728 ;
729 [label="X[0] <= 30.0\ngini = 0.5\nsamples = 16\nvalue = [13, 13]"] ;
728 -> 729 ;
730 [label="X[0] <= 24.5\ngini = 0.455\nsamples = 13\nvalue = [7, 13]"] ;
729 -> 730 ;
731 [label="X[1] <= 12.5\ngini = 0.5\nsamples = 8\nvalue = [7, 7]"] ;
730 -> 731 ;
732 [label="X[0] <= 21.5\ngini = 0.486\nsamples = 7\nvalue = [7, 5]"] ;
731 -> 732 ;
733 [label="X[0] <= 20.5\ngini = 0.469\nsamples = 5\nvalue = [3, 5]"] ;
732 -> 733 ;
734 [label="X[6] <= 4.0\ngini = 0.48\nsamples = 3\nvalue = [3, 2]"] ;
733 -> 734 ;
735 [label="X[6] <= 1.5\ngini = 0.444\nsamples = 2\nvalue = [1, 2]"] ;
734 -> 735 ;
736 [label="gini = 0.0\nsamples = 1\nvalue = [1, 0]"] ;
735 -> 736 ;
737 [label="gini = 0.0\nsamples = 1\nvalue = [0, 2]"] ;
735 -> 737 ;
738 [label="gini = 0.0\nsamples = 1\nvalue = [2, 0]"] ;
734 -> 738 ;
739 [label="gini = 0.0\nsamples = 2\nvalue = [0, 3]"] ;
733 -> 739 ;
740 [label="gini = 0.0\nsamples = 2\nvalue = [4, 0]"] ;
732 -> 740 ;
741 [label="gini = 0.0\nsamples = 1\nvalue = [0, 2]"] ;
731 -> 741 ;
742 [label="gini = 0.0\nsamples = 5\nvalue = [0, 6]"] ;
730 -> 742 ;
743 [label="gini = 0.0\nsamples = 3\nvalue = [6, 0]"] ;
729 -> 743 ;
744 [label="gini = 0.0\nsamples = 8\nvalue = [0, 10]"] ;
728 -> 744 ;
745 [label="X[8] <= 57.5\ngini = 0.496\nsamples = 5\nvalue = [6, 5]"] ;
711 -> 745 ;
746 [label="gini = 0.0\nsamples = 2\nvalue = [6, 0]"] ;
745 -> 746 ;
747 [label="gini = 0.0\nsamples = 3\nvalue = [0, 5]"] ;
745 -> 747 ;
748 [label="X[6] <= 9.5\ngini = 0.074\nsamples = 19\nvalue = [1, 25]"] ;
710 -> 748 ;
749 [label="gini = 0.0\nsamples = 17\nvalue = [0, 24]"] ;
748 -> 749 ;
750 [label="X[0] <= 54.5\ngini = 0.5\nsamples = 2\nvalue = [1, 1]"] ;
748 -> 750 ;
751 [label="gini = 0.0\nsamples = 1\nvalue = [1, 0]"] ;
750 -> 751 ;
752 [label="gini = 0.0\nsamples = 1\nvalue = [0, 1]"] ;
750 -> 752 ;
753 [label="X[8] <= 27.5\ngini = 0.488\nsamples = 37\nvalue = [25, 34]"] ;
709 -> 753 ;
754 [label="X[6] <= 7.5\ngini = 0.434\nsamples = 28\nvalue = [14, 30]"] ;
753 -> 754 ;
755 [label="X[6] <= 2.5\ngini = 0.337\nsamples = 18\nvalue = [6, 22]"] ;
754 -> 755 ;
756 [label="gini = 0.0\nsamples = 3\nvalue = [0, 5]"] ;
755 -> 756 ;
757 [label="X[0] <= 215.0\ngini = 0.386\nsamples = 15\nvalue = [6, 17]"] ;
755 -> 757 ;
758 [label="X[1] <= 7.0\ngini = 0.49\nsamples = 10\nvalue = [6, 8]"] ;
757 -> 758 ;
759 [label="X[6] <= 4.5\ngini = 0.444\nsamples = 3\nvalue = [1, 2]"] ;
758 -> 759 ;
760 [label="gini = 0.0\nsamples = 1\nvalue = [0, 1]"] ;
759 -> 760 ;
761 [label="X[6] <= 6.0\ngini = 0.5\nsamples = 2\nvalue = [1, 1]"] ;
759 -> 761 ;
762 [label="gini = 0.0\nsamples = 1\nvalue = [1, 0]"] ;
761 -> 762 ;
763 [label="gini = 0.0\nsamples = 1\nvalue = [0, 1]"] ;
761 -> 763 ;
764 [label="X[0] <= 131.0\ngini = 0.496\nsamples = 7\nvalue = [5, 6]"] ;
758 -> 764 ;
765 [label="gini = 0.0\nsamples = 3\nvalue = [0, 6]"] ;
764 -> 765 ;
766 [label="gini = 0.0\nsamples = 4\nvalue = [5, 0]"] ;
764 -> 766 ;
767 [label="gini = 0.0\nsamples = 5\nvalue = [0, 9]"] ;
757 -> 767 ;
768 [label="X[6] <= 9.5\ngini = 0.5\nsamples = 10\nvalue = [8, 8]"] ;
754 -> 768 ;
769 [label="X[0] <= 95.5\ngini = 0.473\nsamples = 8\nvalue = [8, 5]"] ;
768 -> 769 ;
770 [label="X[6] <= 8.5\ngini = 0.32\nsamples = 6\nvalue = [8, 2]"] ;
769 -> 770 ;
771 [label="X[1] <= 4.5\ngini = 0.278\nsamples = 4\nvalue = [5, 1]"] ;
770 -> 771 ;
772 [label="gini = 0.0\nsamples = 1\nvalue = [0, 1]"] ;
771 -> 772 ;
773 [label="gini = 0.0\nsamples = 3\nvalue = [5, 0]"] ;
771 -> 773 ;
774 [label="X[0] <= 65.5\ngini = 0.375\nsamples = 2\nvalue = [3, 1]"] ;
770 -> 774 ;
775 [label="gini = 0.0\nsamples = 1\nvalue = [0, 1]"] ;
774 -> 775 ;
776 [label="gini = 0.0\nsamples = 1\nvalue = [3, 0]"] ;
774 -> 776 ;
777 [label="gini = 0.0\nsamples = 2\nvalue = [0, 3]"] ;
769 -> 777 ;
778 [label="gini = 0.0\nsamples = 2\nvalue = [0, 3]"] ;
768 -> 778 ;
779 [label="X[1] <= 4.5\ngini = 0.391\nsamples = 9\nvalue = [11, 4]"] ;
753 -> 779 ;
780 [label="X[8] <= 58.0\ngini = 0.165\nsamples = 6\nvalue = [10, 1]"] ;
779 -> 780 ;
781 [label="gini = 0.0\nsamples = 3\nvalue = [7, 0]"] ;
780 -> 781 ;
782 [label="X[0] <= 85.0\ngini = 0.375\nsamples = 3\nvalue = [3, 1]"] ;
780 -> 782 ;
783 [label="X[6] <= 8.0\ngini = 0.5\nsamples = 2\nvalue = [1, 1]"] ;
782 -> 783 ;
784 [label="gini = 0.0\nsamples = 1\nvalue = [0, 1]"] ;
783 -> 784 ;
785 [label="gini = 0.0\nsamples = 1\nvalue = [1, 0]"] ;
783 -> 785 ;
786 [label="gini = 0.0\nsamples = 1\nvalue = [2, 0]"] ;
782 -> 786 ;
787 [label="X[0] <= 100.0\ngini = 0.375\nsamples = 3\nvalue = [1, 3]"] ;
779 -> 787 ;
788 [label="gini = 0.0\nsamples = 2\nvalue = [0, 3]"] ;
787 -> 788 ;
789 [label="gini = 0.0\nsamples = 1\nvalue = [1, 0]"] ;
787 -> 789 ;
790 [label="X[0] <= 166.0\ngini = 0.091\nsamples = 14\nvalue = [1, 20]"] ;
696 -> 790 ;
791 [label="gini = 0.0\nsamples = 13\nvalue = [0, 20]"] ;
790 -> 791 ;
792 [label="gini = 0.0\nsamples = 1\nvalue = [1, 0]"] ;
790 -> 792 ;
793 [label="X[6] <= 6.5\ngini = 0.219\nsamples = 5\nvalue = [7, 1]"] ;
695 -> 793 ;
794 [label="X[1] <= 4.5\ngini = 0.444\nsamples = 3\nvalue = [2, 1]"] ;
793 -> 794 ;
795 [label="gini = 0.0\nsamples = 1\nvalue = [0, 1]"] ;
794 -> 795 ;
796 [label="gini = 0.0\nsamples = 2\nvalue = [2, 0]"] ;
794 -> 796 ;
797 [label="gini = 0.0\nsamples = 2\nvalue = [5, 0]"] ;
793 -> 797 ;
798 [label="X[1] <= 24.5\ngini = 0.469\nsamples = 7\nvalue = [5, 3]"] ;
694 -> 798 ;
799 [label="X[6] <= 4.5\ngini = 0.278\nsamples = 5\nvalue = [5, 1]"] ;
798 -> 799 ;
800 [label="gini = 0.0\nsamples = 1\nvalue = [0, 1]"] ;
799 -> 800 ;
801 [label="gini = 0.0\nsamples = 4\nvalue = [5, 0]"] ;
799 -> 801 ;
802 [label="gini = 0.0\nsamples = 2\nvalue = [0, 2]"] ;
798 -> 802 ;
803 [label="X[0] <= 21.5\ngini = 0.135\nsamples = 557\nvalue = [65, 831]"] ;
1 -> 803 ;
804 [label="X[1] <= 16.5\ngini = 0.109\nsamples = 537\nvalue = [50, 812]"] ;
803 -> 804 ;
805 [label="X[0] <= 14.5\ngini = 0.091\nsamples = 524\nvalue = [40, 798]"] ;
804 -> 805 ;
806 [label="X[2] <= 72.5\ngini = 0.084\nsamples = 515\nvalue = [36, 786]"] ;
805 -> 806 ;
807 [label="X[0] <= 4.0\ngini = 0.469\nsamples = 6\nvalue = [5, 3]"] ;
806 -> 807 ;
808 [label="X[6] <= 11.5\ngini = 0.278\nsamples = 4\nvalue = [5, 1]"] ;
807 -> 808 ;
809 [label="gini = 0.0\nsamples = 3\nvalue = [5, 0]"] ;
808 -> 809 ;
810 [label="gini = 0.0\nsamples = 1\nvalue = [0, 1]"] ;
808 -> 810 ;
811 [label="gini = 0.0\nsamples = 2\nvalue = [0, 2]"] ;
807 -> 811 ;
812 [label="X[0] <= 1.5\ngini = 0.073\nsamples = 509\nvalue = [31, 783]"] ;
806 -> 812 ;
813 [label="X[2] <= 32864.052\ngini = 0.06\nsamples = 388\nvalue = [19, 598]"] ;
812 -> 813 ;
814 [label="X[0] <= 0.5\ngini = 0.057\nsamples = 387\nvalue = [18, 598]"] ;
813 -> 814 ;
815 [label="X[8] <= 59.5\ngini = 0.072\nsamples = 301\nvalue = [18, 461]"] ;
814 -> 815 ;
816 [label="X[3] <= 13.0\ngini = 0.07\nsamples = 296\nvalue = [17, 454]"] ;
815 -> 816 ;
817 [label="X[3] <= 7.0\ngini = 0.06\nsamples = 287\nvalue = [14, 441]"] ;
816 -> 817 ;
818 [label="gini = 0.0\nsamples = 88\nvalue = [0, 127]"] ;
817 -> 818 ;
819 [label="X[1] <= 7.0\ngini = 0.082\nsamples = 199\nvalue = [14, 314]"] ;
817 -> 819 ;
820 [label="X[1] <= 2.0\ngini = 0.058\nsamples = 182\nvalue = [9, 291]"] ;
819 -> 820 ;
821 [label="X[6] <= 11.5\ngini = 0.043\nsamples = 144\nvalue = [5, 225]"] ;
820 -> 821 ;
822 [label="gini = 0.015\nsamples = 82\nvalue = [1, 132]"] ;
821 -> 822 ;
823 [label="gini = 0.079\nsamples = 62\nvalue = [4, 93]"] ;
821 -> 823 ;
824 [label="X[1] <= 4.5\ngini = 0.108\nsamples = 38\nvalue = [4, 66]"] ;
820 -> 824 ;
825 [label="X[6] <= 11.5\ngini = 0.176\nsamples = 24\nvalue = [4, 37]"] ;
824 -> 825 ;
826 [label="gini = 0.147\nsamples = 16\nvalue = [2, 23]"] ;
825 -> 826 ;
827 [label="gini = 0.219\nsamples = 8\nvalue = [2, 14]"] ;
825 -> 827 ;
828 [label="gini = 0.0\nsamples = 14\nvalue = [0, 29]"] ;
824 -> 828 ;
829 [label="X[1] <= 9.5\ngini = 0.293\nsamples = 17\nvalue = [5, 23]"] ;
819 -> 829 ;
830 [label="X[6] <= 11.5\ngini = 0.311\nsamples = 16\nvalue = [5, 21]"] ;
829 -> 830 ;
831 [label="gini = 0.388\nsamples = 13\nvalue = [5, 14]"] ;
830 -> 831 ;
832 [label="gini = 0.0\nsamples = 3\nvalue = [0, 7]"] ;
830 -> 832 ;
833 [label="gini = 0.0\nsamples = 1\nvalue = [0, 2]"] ;
829 -> 833 ;
834 [label="X[1] <= 2.0\ngini = 0.305\nsamples = 9\nvalue = [3, 13]"] ;
816 -> 834 ;
835 [label="gini = 0.32\nsamples = 8\nvalue = [3, 12]"] ;
834 -> 835 ;
836 [label="gini = 0.0\nsamples = 1\nvalue = [0, 1]"] ;
834 -> 836 ;
837 [label="X[2] <= 8059.052\ngini = 0.219\nsamples = 5\nvalue = [1, 7]"] ;
815 -> 837 ;
838 [label="gini = 0.0\nsamples = 2\nvalue = [0, 4]"] ;
837 -> 838 ;
839 [label="X[6] <= 11.5\ngini = 0.375\nsamples = 3\nvalue = [1, 3]"] ;
837 -> 839 ;
840 [label="gini = 0.0\nsamples = 1\nvalue = [1, 0]"] ;
839 -> 840 ;
841 [label="gini = 0.0\nsamples = 2\nvalue = [0, 3]"] ;
839 -> 841 ;
842 [label="gini = 0.0\nsamples = 86\nvalue = [0, 137]"] ;
814 -> 842 ;
843 [label="gini = 0.0\nsamples = 1\nvalue = [1, 0]"] ;
813 -> 843 ;
844 [label="X[0] <= 6.5\ngini = 0.114\nsamples = 121\nvalue = [12, 185]"] ;
812 -> 844 ;
845 [label="X[0] <= 4.5\ngini = 0.146\nsamples = 92\nvalue = [12, 139]"] ;
844 -> 845 ;
846 [label="X[0] <= 2.5\ngini = 0.104\nsamples = 65\nvalue = [6, 103]"] ;
845 -> 846 ;
847 [label="X[6] <= 11.5\ngini = 0.201\nsamples = 32\nvalue = [6, 47]"] ;
846 -> 847 ;
848 [label="X[1] <= 7.0\ngini = 0.238\nsamples = 21\nvalue = [4, 25]"] ;
847 -> 848 ;
849 [label="X[3] <= 7.0\ngini = 0.137\nsamples = 20\nvalue = [2, 25]"] ;
848 -> 849 ;
850 [label="gini = 0.0\nsamples = 10\nvalue = [0, 12]"] ;
849 -> 850 ;
851 [label="X[1] <= 2.0\ngini = 0.231\nsamples = 10\nvalue = [2, 13]"] ;
849 -> 851 ;
852 [label="X[3] <= 13.0\ngini = 0.245\nsamples = 9\nvalue = [2, 12]"] ;
851 -> 852 ;
853 [label="gini = 0.26\nsamples = 8\nvalue = [2, 11]"] ;
852 -> 853 ;
854 [label="gini = 0.0\nsamples = 1\nvalue = [0, 1]"] ;
852 -> 854 ;
855 [label="gini = 0.0\nsamples = 1\nvalue = [0, 1]"] ;
851 -> 855 ;
856 [label="gini = 0.0\nsamples = 1\nvalue = [2, 0]"] ;
848 -> 856 ;
857 [label="X[8] <= 29.242\ngini = 0.153\nsamples = 11\nvalue = [2, 22]"] ;
847 -> 857 ;
858 [label="X[1] <= 2.5\ngini = 0.231\nsamples = 7\nvalue = [2, 13]"] ;
857 -> 858 ;
859 [label="gini = 0.444\nsamples = 2\nvalue = [2, 1]"] ;
858 -> 859 ;
860 [label="gini = 0.0\nsamples = 5\nvalue = [0, 12]"] ;
858 -> 860 ;
861 [label="gini = 0.0\nsamples = 4\nvalue = [0, 9]"] ;
857 -> 861 ;
862 [label="gini = 0.0\nsamples = 33\nvalue = [0, 56]"] ;
846 -> 862 ;
863 [label="X[8] <= 29.242\ngini = 0.245\nsamples = 27\nvalue = [6, 36]"] ;
845 -> 863 ;
864 [label="X[0] <= 5.5\ngini = 0.147\nsamples = 19\nvalue = [2, 23]"] ;
863 -> 864 ;
865 [label="X[6] <= 11.5\ngini = 0.142\nsamples = 9\nvalue = [1, 12]"] ;
864 -> 865 ;
866 [label="gini = 0.0\nsamples = 4\nvalue = [0, 5]"] ;
865 -> 866 ;
867 [label="X[1] <= 2.5\ngini = 0.219\nsamples = 5\nvalue = [1, 7]"] ;
865 -> 867 ;
868 [label="X[3] <= 7.0\ngini = 0.375\nsamples = 3\nvalue = [1, 3]"] ;
867 -> 868 ;
869 [label="gini = 0.0\nsamples = 1\nvalue = [1, 0]"] ;
868 -> 869 ;
870 [label="gini = 0.0\nsamples = 2\nvalue = [0, 3]"] ;
868 -> 870 ;
871 [label="gini = 0.0\nsamples = 2\nvalue = [0, 4]"] ;
867 -> 871 ;
872 [label="X[3] <= 7.0\ngini = 0.153\nsamples = 10\nvalue = [1, 11]"] ;
864 -> 872 ;
873 [label="X[1] <= 2.5\ngini = 0.219\nsamples = 7\nvalue = [1, 7]"] ;
872 -> 873 ;
874 [label="X[2] <= 64919.052\ngini = 0.5\nsamples = 2\nvalue = [1, 1]"] ;
873 -> 874 ;
875 [label="gini = 0.0\nsamples = 1\nvalue = [1, 0]"] ;
874 -> 875 ;
876 [label="gini = 0.0\nsamples = 1\nvalue = [0, 1]"] ;
874 -> 876 ;
877 [label="gini = 0.0\nsamples = 5\nvalue = [0, 6]"] ;
873 -> 877 ;
878 [label="gini = 0.0\nsamples = 3\nvalue = [0, 4]"] ;
872 -> 878 ;
879 [label="X[8] <= 55.5\ngini = 0.36\nsamples = 8\nvalue = [4, 13]"] ;
863 -> 879 ;
880 [label="gini = 0.0\nsamples = 1\nvalue = [2, 0]"] ;
879 -> 880 ;
881 [label="X[8] <= 60.5\ngini = 0.231\nsamples = 7\nvalue = [2, 13]"] ;
879 -> 881 ;
882 [label="X[6] <= 11.5\ngini = 0.444\nsamples = 3\nvalue = [2, 4]"] ;
881 -> 882 ;
883 [label="X[1] <= 2.0\ngini = 0.5\nsamples = 2\nvalue = [2, 2]"] ;
882 -> 883 ;
884 [label="gini = 0.0\nsamples = 1\nvalue = [0, 2]"] ;
883 -> 884 ;
885 [label="gini = 0.0\nsamples = 1\nvalue = [2, 0]"] ;
883 -> 885 ;
886 [label="gini = 0.0\nsamples = 1\nvalue = [0, 2]"] ;
882 -> 886 ;
887 [label="gini = 0.0\nsamples = 4\nvalue = [0, 9]"] ;
881 -> 887 ;
888 [label="gini = 0.0\nsamples = 29\nvalue = [0, 46]"] ;
844 -> 888 ;
889 [label="X[2] <= 8224.052\ngini = 0.375\nsamples = 9\nvalue = [4, 12]"] ;
805 -> 889 ;
890 [label="gini = 0.0\nsamples = 2\nvalue = [0, 4]"] ;
889 -> 890 ;
891 [label="X[1] <= 2.0\ngini = 0.444\nsamples = 7\nvalue = [4, 8]"] ;
889 -> 891 ;
892 [label="gini = 0.0\nsamples = 2\nvalue = [4, 0]"] ;
891 -> 892 ;
893 [label="gini = 0.0\nsamples = 5\nvalue = [0, 8]"] ;
891 -> 893 ;
894 [label="X[2] <= 160.0\ngini = 0.486\nsamples = 13\nvalue = [10, 14]"] ;
804 -> 894 ;
895 [label="gini = 0.0\nsamples = 1\nvalue = [4, 0]"] ;
894 -> 895 ;
896 [label="X[3] <= 7.0\ngini = 0.42\nsamples = 12\nvalue = [6, 14]"] ;
894 -> 896 ;
897 [label="gini = 0.0\nsamples = 3\nvalue = [0, 5]"] ;
896 -> 897 ;
898 [label="X[6] <= 11.5\ngini = 0.48\nsamples = 9\nvalue = [6, 9]"] ;
896 -> 898 ;
899 [label="gini = 0.497\nsamples = 7\nvalue = [6, 7]"] ;
898 -> 899 ;
900 [label="gini = 0.0\nsamples = 2\nvalue = [0, 2]"] ;
898 -> 900 ;
901 [label="X[0] <= 23.5\ngini = 0.493\nsamples = 20\nvalue = [15, 19]"] ;
803 -> 901 ;
902 [label="gini = 0.0\nsamples = 2\nvalue = [8, 0]"] ;
901 -> 902 ;
903 [label="X[0] <= 33.5\ngini = 0.393\nsamples = 18\nvalue = [7, 19]"] ;
901 -> 903 ;
904 [label="gini = 0.0\nsamples = 7\nvalue = [0, 10]"] ;
903 -> 904 ;
905 [label="X[6] <= 11.5\ngini = 0.492\nsamples = 11\nvalue = [7, 9]"] ;
903 -> 905 ;
906 [label="X[3] <= 7.0\ngini = 0.469\nsamples = 5\nvalue = [5, 3]"] ;
905 -> 906 ;
907 [label="X[8] <= 118.5\ngini = 0.408\nsamples = 4\nvalue = [5, 2]"] ;
906 -> 907 ;
908 [label="X[0] <= 90.5\ngini = 0.278\nsamples = 3\nvalue = [5, 1]"] ;
907 -> 908 ;
909 [label="X[0] <= 46.5\ngini = 0.5\nsamples = 2\nvalue = [1, 1]"] ;
908 -> 909 ;
910 [label="gini = 0.0\nsamples = 1\nvalue = [1, 0]"] ;
909 -> 910 ;
911 [label="gini = 0.0\nsamples = 1\nvalue = [0, 1]"] ;
909 -> 911 ;
912 [label="gini = 0.0\nsamples = 1\nvalue = [4, 0]"] ;
908 -> 912 ;
913 [label="gini = 0.0\nsamples = 1\nvalue = [0, 1]"] ;
907 -> 913 ;
914 [label="gini = 0.0\nsamples = 1\nvalue = [0, 1]"] ;
906 -> 914 ;
915 [label="X[2] <= 135.0\ngini = 0.375\nsamples = 6\nvalue = [2, 6]"] ;
905 -> 915 ;
916 [label="gini = 0.0\nsamples = 1\nvalue = [0, 2]"] ;
915 -> 916 ;
917 [label="X[8] <= 87.0\ngini = 0.444\nsamples = 5\nvalue = [2, 4]"] ;
915 -> 917 ;
918 [label="X[0] <= 327.5\ngini = 0.48\nsamples = 4\nvalue = [2, 3]"] ;
917 -> 918 ;
919 [label="X[0] <= 64.0\ngini = 0.444\nsamples = 3\nvalue = [2, 1]"] ;
918 -> 919 ;
920 [label="gini = 0.0\nsamples = 1\nvalue = [1, 0]"] ;
919 -> 920 ;
921 [label="X[8] <= 38.242\ngini = 0.5\nsamples = 2\nvalue = [1, 1]"] ;
919 -> 921 ;
922 [label="gini = 0.0\nsamples = 1\nvalue = [0, 1]"] ;
921 -> 922 ;
923 [label="gini = 0.0\nsamples = 1\nvalue = [1, 0]"] ;
921 -> 923 ;
924 [label="gini = 0.0\nsamples = 1\nvalue = [0, 2]"] ;
918 -> 924 ;
925 [label="gini = 0.0\nsamples = 1\nvalue = [0, 1]"] ;
917 -> 925 ;
926 [label="X[3] <= 4.5\ngini = 0.086\nsamples = 106561\nvalue = [160855, 7541]"] ;
0 -> 926 [labeldistance=2.5, labelangle=-45, headlabel="False"] ;
927 [label="X[0] <= 5.5\ngini = 0.001\nsamples = 98981\nvalue = [156307, 90]"] ;
926 -> 927 ;
928 [label="X[5] <= -0.5\ngini = 0.085\nsamples = 655\nvalue = [961, 45]"] ;
927 -> 928 ;
929 [label="X[8] <= 101.5\ngini = 0.336\nsamples = 137\nvalue = [162, 44]"] ;
928 -> 929 ;
930 [label="X[3] <= 2.5\ngini = 0.234\nsamples = 118\nvalue = [153, 24]"] ;
929 -> 930 ;
931 [label="X[0] <= 4.5\ngini = 0.073\nsamples = 105\nvalue = [153, 6]"] ;
930 -> 931 ;
932 [label="X[7] <= 0.5\ngini = 0.051\nsamples = 103\nvalue = [150, 4]"] ;
931 -> 932 ;
933 [label="X[8] <= 0.5\ngini = 0.026\nsamples = 102\nvalue = [150, 2]"] ;
932 -> 933 ;
934 [label="X[0] <= 0.5\ngini = 0.408\nsamples = 5\nvalue = [5, 2]"] ;
933 -> 934 ;
935 [label="gini = 0.0\nsamples = 2\nvalue = [0, 2]"] ;
934 -> 935 ;
936 [label="gini = 0.0\nsamples = 3\nvalue = [5, 0]"] ;
934 -> 936 ;
937 [label="gini = 0.0\nsamples = 97\nvalue = [145, 0]"] ;
933 -> 937 ;
938 [label="gini = 0.0\nsamples = 1\nvalue = [0, 2]"] ;
932 -> 938 ;
939 [label="X[2] <= 7901.552\ngini = 0.48\nsamples = 2\nvalue = [3, 2]"] ;
931 -> 939 ;
940 [label="gini = 0.0\nsamples = 1\nvalue = [0, 2]"] ;
939 -> 940 ;
941 [label="gini = 0.0\nsamples = 1\nvalue = [3, 0]"] ;
939 -> 941 ;
942 [label="gini = 0.0\nsamples = 13\nvalue = [0, 18]"] ;
930 -> 942 ;
943 [label="X[1] <= 4.5\ngini = 0.428\nsamples = 19\nvalue = [9, 20]"] ;
929 -> 943 ;
944 [label="X[8] <= 203.5\ngini = 0.198\nsamples = 11\nvalue = [2, 16]"] ;
943 -> 944 ;
945 [label="X[7] <= 0.5\ngini = 0.117\nsamples = 9\nvalue = [1, 15]"] ;
944 -> 945 ;
946 [label="gini = 0.0\nsamples = 8\nvalue = [0, 15]"] ;
945 -> 946 ;
947 [label="gini = 0.0\nsamples = 1\nvalue = [1, 0]"] ;
945 -> 947 ;
948 [label="X[8] <= 314.0\ngini = 0.5\nsamples = 2\nvalue = [1, 1]"] ;
944 -> 948 ;
949 [label="gini = 0.0\nsamples = 1\nvalue = [1, 0]"] ;
948 -> 949 ;
950 [label="gini = 0.0\nsamples = 1\nvalue = [0, 1]"] ;
948 -> 950 ;
951 [label="X[3] <= 2.5\ngini = 0.463\nsamples = 8\nvalue = [7, 4]"] ;
943 -> 951 ;
952 [label="X[1] <= 6.5\ngini = 0.219\nsamples = 7\nvalue = [7, 1]"] ;
951 -> 952 ;
953 [label="X[6] <= 4.5\ngini = 0.375\nsamples = 4\nvalue = [3, 1]"] ;
952 -> 953 ;
954 [label="gini = 0.0\nsamples = 3\nvalue = [3, 0]"] ;
953 -> 954 ;
955 [label="gini = 0.0\nsamples = 1\nvalue = [0, 1]"] ;
953 -> 955 ;
956 [label="gini = 0.0\nsamples = 3\nvalue = [4, 0]"] ;
952 -> 956 ;
957 [label="gini = 0.0\nsamples = 1\nvalue = [0, 3]"] ;
951 -> 957 ;
958 [label="X[3] <= 2.5\ngini = 0.002\nsamples = 518\nvalue = [799, 1]"] ;
928 -> 958 ;
959 [label="gini = 0.0\nsamples = 295\nvalue = [443, 0]"] ;
958 -> 959 ;
960 [label="X[6] <= 3.0\ngini = 0.006\nsamples = 223\nvalue = [356, 1]"] ;
958 -> 960 ;
961 [label="X[6] <= 1.5\ngini = 0.5\nsamples = 2\nvalue = [1, 1]"] ;
960 -> 961 ;
962 [label="gini = 0.0\nsamples = 1\nvalue = [1, 0]"] ;
961 -> 962 ;
963 [label="gini = 0.0\nsamples = 1\nvalue = [0, 1]"] ;
961 -> 963 ;
964 [label="gini = 0.0\nsamples = 221\nvalue = [355, 0]"] ;
960 -> 964 ;
965 [label="X[8] <= 48.5\ngini = 0.001\nsamples = 98326\nvalue = [155346, 45]"] ;
927 -> 965 ;
966 [label="X[1] <= 0.5\ngini = 0.0\nsamples = 81243\nvalue = [128344, 5]"] ;
965 -> 966 ;
967 [label="X[4] <= -0.5\ngini = 0.0\nsamples = 37252\nvalue = [58874, 5]"] ;
966 -> 967 ;
968 [label="X[2] <= 15714.052\ngini = 0.0\nsamples = 13084\nvalue = [20684, 5]"] ;
967 -> 968 ;
969 [label="gini = 0.0\nsamples = 1001\nvalue = [1612, 0]"] ;
968 -> 969 ;
970 [label="X[7] <= 0.5\ngini = 0.001\nsamples = 12083\nvalue = [19072, 5]"] ;
968 -> 970 ;
971 [label="X[8] <= 0.5\ngini = 0.0\nsamples = 10623\nvalue = [16769, 3]"] ;
970 -> 971 ;
972 [label="X[0] <= 36.0\ngini = 0.001\nsamples = 3746\nvalue = [5896, 3]"] ;
971 -> 972 ;
973 [label="X[6] <= 4.5\ngini = 0.375\nsamples = 2\nvalue = [1, 3]"] ;
972 -> 973 ;
974 [label="gini = 0.0\nsamples = 1\nvalue = [1, 0]"] ;
973 -> 974 ;
975 [label="gini = 0.0\nsamples = 1\nvalue = [0, 3]"] ;
973 -> 975 ;
976 [label="gini = 0.0\nsamples = 3744\nvalue = [5895, 0]"] ;
972 -> 976 ;
977 [label="gini = 0.0\nsamples = 6877\nvalue = [10873, 0]"] ;
971 -> 977 ;
978 [label="X[0] <= 7.5\ngini = 0.002\nsamples = 1460\nvalue = [2303, 2]"] ;
970 -> 978 ;
979 [label="X[3] <= 2.5\ngini = 0.298\nsamples = 5\nvalue = [9, 2]"] ;
978 -> 979 ;
980 [label="gini = 0.0\nsamples = 2\nvalue = [4, 0]"] ;
979 -> 980 ;
981 [label="X[6] <= 5.0\ngini = 0.408\nsamples = 3\nvalue = [5, 2]"] ;
979 -> 981 ;
982 [label="gini = 0.0\nsamples = 2\nvalue = [5, 0]"] ;
981 -> 982 ;
983 [label="gini = 0.0\nsamples = 1\nvalue = [0, 2]"] ;
981 -> 983 ;
984 [label="gini = 0.0\nsamples = 1455\nvalue = [2294, 0]"] ;
978 -> 984 ;
985 [label="gini = 0.0\nsamples = 24168\nvalue = [38190, 0]"] ;
967 -> 985 ;
986 [label="gini = 0.0\nsamples = 43991\nvalue = [69470, 0]"] ;
966 -> 986 ;
987 [label="X[0] <= 29.5\ngini = 0.003\nsamples = 17083\nvalue = [27002, 40]"] ;
965 -> 987 ;
988 [label="X[6] <= 3.5\ngini = 0.042\nsamples = 972\nvalue = [1500, 33]"] ;
987 -> 988 ;
989 [label="X[8] <= 106.5\ngini = 0.074\nsamples = 16\nvalue = [1, 25]"] ;
988 -> 989 ;
990 [label="gini = 0.0\nsamples = 9\nvalue = [0, 14]"] ;
989 -> 990 ;
991 [label="X[6] <= 2.5\ngini = 0.153\nsamples = 7\nvalue = [1, 11]"] ;
989 -> 991 ;
992 [label="gini = 0.0\nsamples = 2\nvalue = [0, 4]"] ;
991 -> 992 ;
993 [label="X[8] <= 109.5\ngini = 0.219\nsamples = 5\nvalue = [1, 7]"] ;
991 -> 993 ;
994 [label="gini = 0.0\nsamples = 1\nvalue = [1, 0]"] ;
993 -> 994 ;
995 [label="gini = 0.0\nsamples = 4\nvalue = [0, 7]"] ;
993 -> 995 ;
996 [label="X[6] <= 4.5\ngini = 0.011\nsamples = 956\nvalue = [1499, 8]"] ;
988 -> 996 ;
997 [label="X[1] <= 4.5\ngini = 0.009\nsamples = 955\nvalue = [1499, 7]"] ;
996 -> 997 ;
998 [label="X[5] <= -0.5\ngini = 0.016\nsamples = 556\nvalue = [882, 7]"] ;
997 -> 998 ;
999 [label="X[8] <= 55.0\ngini = 0.048\nsamples = 182\nvalue = [276, 7]"] ;
998 -> 999 ;
1000 [label="X[8] <= 49.5\ngini = 0.32\nsamples = 13\nvalue = [16, 4]"] ;
999 -> 1000 ;
1001 [label="gini = 0.0\nsamples = 3\nvalue = [7, 0]"] ;
1000 -> 1001 ;
1002 [label="X[3] <= 2.5\ngini = 0.426\nsamples = 10\nvalue = [9, 4]"] ;
1000 -> 1002 ;
1003 [label="X[0] <= 8.5\ngini = 0.298\nsamples = 8\nvalue = [9, 2]"] ;
1002 -> 1003 ;
1004 [label="X[0] <= 7.5\ngini = 0.444\nsamples = 2\nvalue = [1, 2]"] ;
1003 -> 1004 ;
1005 [label="gini = 0.0\nsamples = 1\nvalue = [1, 0]"] ;
1004 -> 1005 ;
1006 [label="gini = 0.0\nsamples = 1\nvalue = [0, 2]"] ;
1004 -> 1006 ;
1007 [label="gini = 0.0\nsamples = 6\nvalue = [8, 0]"] ;
1003 -> 1007 ;
1008 [label="gini = 0.0\nsamples = 2\nvalue = [0, 2]"] ;
1002 -> 1008 ;
1009 [label="X[1] <= 0.5\ngini = 0.023\nsamples = 169\nvalue = [260, 3]"] ;
999 -> 1009 ;
1010 [label="X[8] <= 268.0\ngini = 0.026\nsamples = 151\nvalue = [226, 3]"] ;
1009 -> 1010 ;
1011 [label="X[4] <= -0.5\ngini = 0.009\nsamples = 148\nvalue = [220, 1]"] ;
1010 -> 1011 ;
1012 [label="X[8] <= 139.0\ngini = 0.013\nsamples = 102\nvalue = [151, 1]"] ;
1011 -> 1012 ;
1013 [label="gini = 0.0\nsamples = 86\nvalue = [133, 0]"] ;
1012 -> 1013 ;
1014 [label="X[0] <= 22.5\ngini = 0.1\nsamples = 16\nvalue = [18, 1]"] ;
1012 -> 1014 ;
1015 [label="gini = 0.0\nsamples = 13\nvalue = [14, 0]"] ;
1014 -> 1015 ;
1016 [label="X[3] <= 2.5\ngini = 0.32\nsamples = 3\nvalue = [4, 1]"] ;
1014 -> 1016 ;
1017 [label="gini = 0.0\nsamples = 2\nvalue = [4, 0]"] ;
1016 -> 1017 ;
1018 [label="gini = 0.0\nsamples = 1\nvalue = [0, 1]"] ;
1016 -> 1018 ;
1019 [label="gini = 0.0\nsamples = 46\nvalue = [69, 0]"] ;
1011 -> 1019 ;
1020 [label="X[3] <= 2.5\ngini = 0.375\nsamples = 3\nvalue = [6, 2]"] ;
1010 -> 1020 ;
1021 [label="gini = 0.0\nsamples = 2\nvalue = [6, 0]"] ;
1020 -> 1021 ;
1022 [label="gini = 0.0\nsamples = 1\nvalue = [0, 2]"] ;
1020 -> 1022 ;
1023 [label="gini = 0.0\nsamples = 18\nvalue = [34, 0]"] ;
1009 -> 1023 ;
1024 [label="gini = 0.0\nsamples = 374\nvalue = [606, 0]"] ;
998 -> 1024 ;
1025 [label="gini = 0.0\nsamples = 399\nvalue = [617, 0]"] ;
997 -> 1025 ;
1026 [label="gini = 0.0\nsamples = 1\nvalue = [0, 1]"] ;
996 -> 1026 ;
1027 [label="X[3] <= 2.5\ngini = 0.001\nsamples = 16111\nvalue = [25502, 7]"] ;
987 -> 1027 ;
1028 [label="X[1] <= 16.5\ngini = 0.0\nsamples = 12412\nvalue = [19573, 2]"] ;
1027 -> 1028 ;
1029 [label="X[8] <= 55.5\ngini = 0.0\nsamples = 12397\nvalue = [19557, 1]"] ;
1028 -> 1029 ;
1030 [label="X[1] <= 0.5\ngini = 0.001\nsamples = 1668\nvalue = [2655, 1]"] ;
1029 -> 1030 ;
1031 [label="X[0] <= 119.5\ngini = 0.002\nsamples = 624\nvalue = [989, 1]"] ;
1030 -> 1031 ;
1032 [label="X[5] <= -0.5\ngini = 0.01\nsamples = 128\nvalue = [200, 1]"] ;
1031 -> 1032 ;
1033 [label="X[3] <= 1.0\ngini = 0.027\nsamples = 43\nvalue = [71, 1]"] ;
1032 -> 1033 ;
1034 [label="gini = 0.0\nsamples = 12\nvalue = [19, 0]"] ;
1033 -> 1034 ;
1035 [label="X[0] <= 116.0\ngini = 0.037\nsamples = 31\nvalue = [52, 1]"] ;
1033 -> 1035 ;
1036 [label="gini = 0.0\nsamples = 30\nvalue = [52, 0]"] ;
1035 -> 1036 ;
1037 [label="gini = 0.0\nsamples = 1\nvalue = [0, 1]"] ;
1035 -> 1037 ;
1038 [label="gini = 0.0\nsamples = 85\nvalue = [129, 0]"] ;
1032 -> 1038 ;
1039 [label="gini = 0.0\nsamples = 496\nvalue = [789, 0]"] ;
1031 -> 1039 ;
1040 [label="gini = 0.0\nsamples = 1044\nvalue = [1666, 0]"] ;
1030 -> 1040 ;
1041 [label="gini = 0.0\nsamples = 10729\nvalue = [16902, 0]"] ;
1029 -> 1041 ;
1042 [label="X[1] <= 18.5\ngini = 0.111\nsamples = 15\nvalue = [16, 1]"] ;
1028 -> 1042 ;
1043 [label="gini = 0.0\nsamples = 1\nvalue = [0, 1]"] ;
1042 -> 1043 ;
1044 [label="gini = 0.0\nsamples = 14\nvalue = [16, 0]"] ;
1042 -> 1044 ;
1045 [label="X[0] <= 322.5\ngini = 0.002\nsamples = 3699\nvalue = [5929, 5]"] ;
1027 -> 1045 ;
1046 [label="X[2] <= 7866.552\ngini = 0.018\nsamples = 286\nvalue = [440, 4]"] ;
1045 -> 1046 ;
1047 [label="gini = 0.0\nsamples = 1\nvalue = [0, 1]"] ;
1046 -> 1047 ;
1048 [label="X[0] <= 320.0\ngini = 0.013\nsamples = 285\nvalue = [440, 3]"] ;
1046 -> 1048 ;
1049 [label="X[1] <= 17.0\ngini = 0.009\nsamples = 284\nvalue = [440, 2]"] ;
1048 -> 1049 ;
1050 [label="gini = 0.0\nsamples = 282\nvalue = [440, 0]"] ;
1049 -> 1050 ;
1051 [label="gini = 0.0\nsamples = 2\nvalue = [0, 2]"] ;
1049 -> 1051 ;
1052 [label="gini = 0.0\nsamples = 1\nvalue = [0, 1]"] ;
1048 -> 1052 ;
1053 [label="X[8] <= 176.5\ngini = 0.0\nsamples = 3413\nvalue = [5489, 1]"] ;
1045 -> 1053 ;
1054 [label="gini = 0.0\nsamples = 2643\nvalue = [4266, 0]"] ;
1053 -> 1054 ;
1055 [label="X[0] <= 721.5\ngini = 0.002\nsamples = 770\nvalue = [1223, 1]"] ;
1053 -> 1055 ;
1056 [label="X[8] <= 177.5\ngini = 0.004\nsamples = 303\nvalue = [475, 1]"] ;
1055 -> 1056 ;
1057 [label="X[1] <= 6.0\ngini = 0.245\nsamples = 4\nvalue = [6, 1]"] ;
1056 -> 1057 ;
1058 [label="gini = 0.0\nsamples = 3\nvalue = [6, 0]"] ;
1057 -> 1058 ;
1059 [label="gini = 0.0\nsamples = 1\nvalue = [0, 1]"] ;
1057 -> 1059 ;
1060 [label="gini = 0.0\nsamples = 299\nvalue = [469, 0]"] ;
1056 -> 1060 ;
1061 [label="gini = 0.0\nsamples = 467\nvalue = [748, 0]"] ;
1055 -> 1061 ;
1062 [label="X[3] <= 5.5\ngini = 0.471\nsamples = 7580\nvalue = [4548, 7451]"] ;
926 -> 1062 ;
1063 [label="X[8] <= 44.5\ngini = 0.335\nsamples = 5578\nvalue = [1881, 6971]"] ;
1062 -> 1063 ;
1064 [label="X[4] <= -0.5\ngini = 0.475\nsamples = 1907\nvalue = [1177, 1858]"] ;
1063 -> 1064 ;
1065 [label="X[8] <= -3.5\ngini = 0.452\nsamples = 1657\nvalue = [911, 1735]"] ;
1064 -> 1065 ;
1066 [label="X[6] <= 8.5\ngini = 0.449\nsamples = 108\nvalue = [103, 53]"] ;
1065 -> 1066 ;
1067 [label="X[0] <= 62.5\ngini = 0.381\nsamples = 90\nvalue = [93, 32]"] ;
1066 -> 1067 ;
1068 [label="X[5] <= 1.5\ngini = 0.471\nsamples = 38\nvalue = [31, 19]"] ;
1067 -> 1068 ;
1069 [label="X[2] <= 494.5\ngini = 0.375\nsamples = 25\nvalue = [24, 8]"] ;
1068 -> 1069 ;
1070 [label="gini = 0.0\nsamples = 1\nvalue = [0, 2]"] ;
1069 -> 1070 ;
1071 [label="X[8] <= -206.5\ngini = 0.32\nsamples = 24\nvalue = [24, 6]"] ;
1069 -> 1071 ;
1072 [label="X[6] <= 2.5\ngini = 0.5\nsamples = 7\nvalue = [4, 4]"] ;
1071 -> 1072 ;
1073 [label="X[7] <= 0.5\ngini = 0.444\nsamples = 5\nvalue = [2, 4]"] ;
1072 -> 1073 ;
1074 [label="X[8] <= -268.5\ngini = 0.444\nsamples = 3\nvalue = [1, 2]"] ;
1073 -> 1074 ;
1075 [label="gini = 0.0\nsamples = 1\nvalue = [1, 0]"] ;
1074 -> 1075 ;
1076 [label="gini = 0.0\nsamples = 2\nvalue = [0, 2]"] ;
1074 -> 1076 ;
1077 [label="X[8] <= -235.5\ngini = 0.444\nsamples = 2\nvalue = [1, 2]"] ;
1073 -> 1077 ;
1078 [label="gini = 0.0\nsamples = 1\nvalue = [0, 2]"] ;
1077 -> 1078 ;
1079 [label="gini = 0.0\nsamples = 1\nvalue = [1, 0]"] ;
1077 -> 1079 ;
1080 [label="gini = 0.0\nsamples = 2\nvalue = [2, 0]"] ;
1072 -> 1080 ;
1081 [label="X[1] <= 1.0\ngini = 0.165\nsamples = 17\nvalue = [20, 2]"] ;
1071 -> 1081 ;
1082 [label="X[2] <= 8263.552\ngini = 0.5\nsamples = 2\nvalue = [1, 1]"] ;
1081 -> 1082 ;
1083 [label="gini = 0.0\nsamples = 1\nvalue = [1, 0]"] ;
1082 -> 1083 ;
1084 [label="gini = 0.0\nsamples = 1\nvalue = [0, 1]"] ;
1082 -> 1084 ;
1085 [label="X[1] <= 8.5\ngini = 0.095\nsamples = 15\nvalue = [19, 1]"] ;
1081 -> 1085 ;
1086 [label="gini = 0.0\nsamples = 13\nvalue = [17, 0]"] ;
1085 -> 1086 ;
1087 [label="X[0] <= 12.5\ngini = 0.444\nsamples = 2\nvalue = [2, 1]"] ;
1085 -> 1087 ;
1088 [label="gini = 0.0\nsamples = 1\nvalue = [2, 0]"] ;
1087 -> 1088 ;
1089 [label="gini = 0.0\nsamples = 1\nvalue = [0, 1]"] ;
1087 -> 1089 ;
1090 [label="X[7] <= 0.5\ngini = 0.475\nsamples = 13\nvalue = [7, 11]"] ;
1068 -> 1090 ;
1091 [label="X[1] <= 6.5\ngini = 0.498\nsamples = 10\nvalue = [7, 8]"] ;
1090 -> 1091 ;
1092 [label="X[8] <= -105.0\ngini = 0.198\nsamples = 7\nvalue = [1, 8]"] ;
1091 -> 1092 ;
1093 [label="gini = 0.0\nsamples = 5\nvalue = [0, 7]"] ;
1092 -> 1093 ;
1094 [label="X[0] <= 22.5\ngini = 0.5\nsamples = 2\nvalue = [1, 1]"] ;
1092 -> 1094 ;
1095 [label="gini = 0.0\nsamples = 1\nvalue = [1, 0]"] ;
1094 -> 1095 ;
1096 [label="gini = 0.0\nsamples = 1\nvalue = [0, 1]"] ;
1094 -> 1096 ;
1097 [label="gini = 0.0\nsamples = 3\nvalue = [6, 0]"] ;
1091 -> 1097 ;
1098 [label="gini = 0.0\nsamples = 3\nvalue = [0, 3]"] ;
1090 -> 1098 ;
1099 [label="X[6] <= 6.5\ngini = 0.287\nsamples = 52\nvalue = [62, 13]"] ;
1067 -> 1099 ;
1100 [label="X[0] <= 640.0\ngini = 0.219\nsamples = 45\nvalue = [56, 8]"] ;
1099 -> 1100 ;
1101 [label="X[0] <= 186.5\ngini = 0.078\nsamples = 32\nvalue = [47, 2]"] ;
1100 -> 1101 ;
1102 [label="X[8] <= -22.5\ngini = 0.444\nsamples = 3\nvalue = [2, 1]"] ;
1101 -> 1102 ;
1103 [label="gini = 0.0\nsamples = 1\nvalue = [0, 1]"] ;
1102 -> 1103 ;
1104 [label="gini = 0.0\nsamples = 2\nvalue = [2, 0]"] ;
1102 -> 1104 ;
1105 [label="X[0] <= 419.0\ngini = 0.043\nsamples = 29\nvalue = [45, 1]"] ;
1101 -> 1105 ;
1106 [label="gini = 0.0\nsamples = 24\nvalue = [38, 0]"] ;
1105 -> 1106 ;
1107 [label="X[0] <= 425.0\ngini = 0.219\nsamples = 5\nvalue = [7, 1]"] ;
1105 -> 1107 ;
1108 [label="gini = 0.0\nsamples = 1\nvalue = [0, 1]"] ;
1107 -> 1108 ;
1109 [label="gini = 0.0\nsamples = 4\nvalue = [7, 0]"] ;
1107 -> 1109 ;
1110 [label="X[2] <= 110.0\ngini = 0.48\nsamples = 13\nvalue = [9, 6]"] ;
1100 -> 1110 ;
1111 [label="gini = 0.0\nsamples = 1\nvalue = [0, 1]"] ;
1110 -> 1111 ;
1112 [label="X[6] <= 3.5\ngini = 0.459\nsamples = 12\nvalue = [9, 5]"] ;
1110 -> 1112 ;
1113 [label="gini = 0.0\nsamples = 1\nvalue = [3, 0]"] ;
1112 -> 1113 ;
1114 [label="X[1] <= 2.0\ngini = 0.496\nsamples = 11\nvalue = [6, 5]"] ;
1112 -> 1114 ;
1115 [label="X[8] <= -27.5\ngini = 0.48\nsamples = 10\nvalue = [6, 4]"] ;
1114 -> 1115 ;
1116 [label="X[2] <= 8857.552\ngini = 0.444\nsamples = 6\nvalue = [2, 4]"] ;
1115 -> 1116 ;
1117 [label="gini = 0.0\nsamples = 2\nvalue = [0, 2]"] ;
1116 -> 1117 ;
1118 [label="X[8] <= -75.0\ngini = 0.5\nsamples = 4\nvalue = [2, 2]"] ;
1116 -> 1118 ;
1119 [label="gini = 0.0\nsamples = 2\nvalue = [0, 2]"] ;
1118 -> 1119 ;
1120 [label="gini = 0.0\nsamples = 2\nvalue = [2, 0]"] ;
1118 -> 1120 ;
1121 [label="gini = 0.0\nsamples = 4\nvalue = [4, 0]"] ;
1115 -> 1121 ;
1122 [label="gini = 0.0\nsamples = 1\nvalue = [0, 1]"] ;
1114 -> 1122 ;
1123 [label="X[8] <= -248.5\ngini = 0.496\nsamples = 7\nvalue = [6, 5]"] ;
1099 -> 1123 ;
1124 [label="gini = 0.0\nsamples = 2\nvalue = [3, 0]"] ;
1123 -> 1124 ;
1125 [label="X[1] <= 5.0\ngini = 0.469\nsamples = 5\nvalue = [3, 5]"] ;
1123 -> 1125 ;
1126 [label="X[0] <= 643.5\ngini = 0.278\nsamples = 4\nvalue = [1, 5]"] ;
1125 -> 1126 ;
1127 [label="gini = 0.0\nsamples = 3\nvalue = [0, 5]"] ;
1126 -> 1127 ;
1128 [label="gini = 0.0\nsamples = 1\nvalue = [1, 0]"] ;
1126 -> 1128 ;
1129 [label="gini = 0.0\nsamples = 1\nvalue = [2, 0]"] ;
1125 -> 1129 ;
1130 [label="X[1] <= 1.0\ngini = 0.437\nsamples = 18\nvalue = [10, 21]"] ;
1066 -> 1130 ;
1131 [label="X[0] <= 365.5\ngini = 0.219\nsamples = 5\nvalue = [7, 1]"] ;
1130 -> 1131 ;
1132 [label="X[8] <= -175.5\ngini = 0.444\nsamples = 2\nvalue = [2, 1]"] ;
1131 -> 1132 ;
1133 [label="gini = 0.0\nsamples = 1\nvalue = [2, 0]"] ;
1132 -> 1133 ;
1134 [label="gini = 0.0\nsamples = 1\nvalue = [0, 1]"] ;
1132 -> 1134 ;
1135 [label="gini = 0.0\nsamples = 3\nvalue = [5, 0]"] ;
1131 -> 1135 ;
1136 [label="X[0] <= 0.5\ngini = 0.227\nsamples = 13\nvalue = [3, 20]"] ;
1130 -> 1136 ;
1137 [label="X[6] <= 10.5\ngini = 0.444\nsamples = 3\nvalue = [2, 1]"] ;
1136 -> 1137 ;
1138 [label="X[8] <= -195.0\ngini = 0.5\nsamples = 2\nvalue = [1, 1]"] ;
1137 -> 1138 ;
1139 [label="gini = 0.0\nsamples = 1\nvalue = [1, 0]"] ;
1138 -> 1139 ;
1140 [label="gini = 0.0\nsamples = 1\nvalue = [0, 1]"] ;
1138 -> 1140 ;
1141 [label="gini = 0.0\nsamples = 1\nvalue = [1, 0]"] ;
1137 -> 1141 ;
1142 [label="X[5] <= 1.5\ngini = 0.095\nsamples = 10\nvalue = [1, 19]"] ;
1136 -> 1142 ;
1143 [label="X[8] <= -142.5\ngini = 0.278\nsamples = 3\nvalue = [1, 5]"] ;
1142 -> 1143 ;
1144 [label="X[8] <= -277.5\ngini = 0.444\nsamples = 2\nvalue = [1, 2]"] ;
1143 -> 1144 ;
1145 [label="gini = 0.0\nsamples = 1\nvalue = [0, 2]"] ;
1144 -> 1145 ;
1146 [label="gini = 0.0\nsamples = 1\nvalue = [1, 0]"] ;
1144 -> 1146 ;
1147 [label="gini = 0.0\nsamples = 1\nvalue = [0, 3]"] ;
1143 -> 1147 ;
1148 [label="gini = 0.0\nsamples = 7\nvalue = [0, 14]"] ;
1142 -> 1148 ;
1149 [label="X[5] <= 1.5\ngini = 0.438\nsamples = 1549\nvalue = [808, 1682]"] ;
1065 -> 1149 ;
1150 [label="X[2] <= 14714.052\ngini = 0.472\nsamples = 1018\nvalue = [617, 998]"] ;
1149 -> 1150 ;
1151 [label="X[8] <= 19.0\ngini = 0.318\nsamples = 179\nvalue = [55, 222]"] ;
1150 -> 1151 ;
1152 [label="X[0] <= 541.0\ngini = 0.251\nsamples = 164\nvalue = [37, 214]"] ;
1151 -> 1152 ;
1153 [label="X[1] <= 17.5\ngini = 0.203\nsamples = 153\nvalue = [27, 209]"] ;
1152 -> 1153 ;
1154 [label="X[2] <= 69.0\ngini = 0.134\nsamples = 137\nvalue = [15, 193]"] ;
1153 -> 1154 ;
1155 [label="gini = 0.0\nsamples = 32\nvalue = [0, 48]"] ;
1154 -> 1155 ;
1156 [label="X[8] <= 5.5\ngini = 0.17\nsamples = 105\nvalue = [15, 145]"] ;
1154 -> 1156 ;
1157 [label="X[2] <= 74.5\ngini = 0.138\nsamples = 97\nvalue = [11, 136]"] ;
1156 -> 1157 ;
1158 [label="gini = 0.0\nsamples = 1\nvalue = [2, 0]"] ;
1157 -> 1158 ;
1159 [label="X[8] <= 1.5\ngini = 0.116\nsamples = 96\nvalue = [9, 136]"] ;
1157 -> 1159 ;
1160 [label="X[0] <= 1.5\ngini = 0.093\nsamples = 79\nvalue = [6, 117]"] ;
1159 -> 1160 ;
1161 [label="X[6] <= 6.5\ngini = 0.208\nsamples = 24\nvalue = [4, 30]"] ;
1160 -> 1161 ;
1162 [label="X[0] <= 0.5\ngini = 0.298\nsamples = 16\nvalue = [4, 18]"] ;
1161 -> 1162 ;
1163 [label="X[6] <= 2.5\ngini = 0.355\nsamples = 10\nvalue = [3, 10]"] ;
1162 -> 1163 ;
1164 [label="gini = 0.0\nsamples = 1\nvalue = [2, 0]"] ;
1163 -> 1164 ;
1165 [label="X[2] <= 3905.0\ngini = 0.165\nsamples = 9\nvalue = [1, 10]"] ;
1163 -> 1165 ;
1166 [label="gini = 0.0\nsamples = 5\nvalue = [0, 7]"] ;
1165 -> 1166 ;
1167 [label="X[6] <= 5.5\ngini = 0.375\nsamples = 4\nvalue = [1, 3]"] ;
1165 -> 1167 ;
1168 [label="gini = 0.444\nsamples = 3\nvalue = [1, 2]"] ;
1167 -> 1168 ;
1169 [label="gini = 0.0\nsamples = 1\nvalue = [0, 1]"] ;
1167 -> 1169 ;
1170 [label="X[1] <= 3.0\ngini = 0.198\nsamples = 6\nvalue = [1, 8]"] ;
1162 -> 1170 ;
1171 [label="X[6] <= 4.0\ngini = 0.278\nsamples = 5\nvalue = [1, 5]"] ;
1170 -> 1171 ;
1172 [label="gini = 0.0\nsamples = 1\nvalue = [0, 2]"] ;
1171 -> 1172 ;
1173 [label="X[2] <= 900.0\ngini = 0.375\nsamples = 4\nvalue = [1, 3]"] ;
1171 -> 1173 ;
1174 [label="X[2] <= 320.0\ngini = 0.5\nsamples = 2\nvalue = [1, 1]"] ;
1173 -> 1174 ;
1175 [label="gini = 0.0\nsamples = 1\nvalue = [0, 1]"] ;
1174 -> 1175 ;
1176 [label="gini = 0.0\nsamples = 1\nvalue = [1, 0]"] ;
1174 -> 1176 ;
1177 [label="gini = 0.0\nsamples = 2\nvalue = [0, 2]"] ;
1173 -> 1177 ;
1178 [label="gini = 0.0\nsamples = 1\nvalue = [0, 3]"] ;
1170 -> 1178 ;
1179 [label="gini = 0.0\nsamples = 8\nvalue = [0, 12]"] ;
1161 -> 1179 ;
1180 [label="X[2] <= 110.0\ngini = 0.044\nsamples = 55\nvalue = [2, 87]"] ;
1160 -> 1180 ;
1181 [label="X[0] <= 112.5\ngini = 0.198\nsamples = 7\nvalue = [1, 8]"] ;
1180 -> 1181 ;
1182 [label="gini = 0.0\nsamples = 4\nvalue = [0, 6]"] ;
1181 -> 1182 ;
1183 [label="X[6] <= 6.5\ngini = 0.444\nsamples = 3\nvalue = [1, 2]"] ;
1181 -> 1183 ;
1184 [label="gini = 0.0\nsamples = 1\nvalue = [0, 1]"] ;
1183 -> 1184 ;
1185 [label="X[0] <= 242.0\ngini = 0.5\nsamples = 2\nvalue = [1, 1]"] ;
1183 -> 1185 ;
1186 [label="gini = 0.0\nsamples = 1\nvalue = [1, 0]"] ;
1185 -> 1186 ;
1187 [label="gini = 0.0\nsamples = 1\nvalue = [0, 1]"] ;
1185 -> 1187 ;
1188 [label="X[2] <= 321.5\ngini = 0.025\nsamples = 48\nvalue = [1, 79]"] ;
1180 -> 1188 ;
1189 [label="X[6] <= 5.0\ngini = 0.054\nsamples = 25\nvalue = [1, 35]"] ;
1188 -> 1189 ;
1190 [label="gini = 0.0\nsamples = 14\nvalue = [0, 22]"] ;
1189 -> 1190 ;
1191 [label="X[1] <= 3.0\ngini = 0.133\nsamples = 11\nvalue = [1, 13]"] ;
1189 -> 1191 ;
1192 [label="X[0] <= 25.5\ngini = 0.32\nsamples = 4\nvalue = [1, 4]"] ;
1191 -> 1192 ;
1193 [label="gini = 0.0\nsamples = 1\nvalue = [1, 0]"] ;
1192 -> 1193 ;
1194 [label="gini = 0.0\nsamples = 3\nvalue = [0, 4]"] ;
1192 -> 1194 ;
1195 [label="gini = 0.0\nsamples = 7\nvalue = [0, 9]"] ;
1191 -> 1195 ;
1196 [label="gini = 0.0\nsamples = 23\nvalue = [0, 44]"] ;
1188 -> 1196 ;
1197 [label="X[6] <= 10.5\ngini = 0.236\nsamples = 17\nvalue = [3, 19]"] ;
1159 -> 1197 ;
1198 [label="X[8] <= 3.742\ngini = 0.124\nsamples = 13\nvalue = [1, 14]"] ;
1197 -> 1198 ;
1199 [label="X[2] <= 405.0\ngini = 0.444\nsamples = 3\nvalue = [1, 2]"] ;
1198 -> 1199 ;
1200 [label="gini = 0.0\nsamples = 2\nvalue = [0, 2]"] ;
1199 -> 1200 ;
1201 [label="gini = 0.0\nsamples = 1\nvalue = [1, 0]"] ;
1199 -> 1201 ;
1202 [label="gini = 0.0\nsamples = 10\nvalue = [0, 12]"] ;
1198 -> 1202 ;
1203 [label="X[0] <= 31.5\ngini = 0.408\nsamples = 4\nvalue = [2, 5]"] ;
1197 -> 1203 ;
1204 [label="X[2] <= 180.5\ngini = 0.444\nsamples = 3\nvalue = [2, 4]"] ;
1203 -> 1204 ;
1205 [label="gini = 0.0\nsamples = 2\nvalue = [0, 4]"] ;
1204 -> 1205 ;
1206 [label="gini = 0.0\nsamples = 1\nvalue = [2, 0]"] ;
1204 -> 1206 ;
1207 [label="gini = 0.0\nsamples = 1\nvalue = [0, 1]"] ;
1203 -> 1207 ;
1208 [label="X[2] <= 520.0\ngini = 0.426\nsamples = 8\nvalue = [4, 9]"] ;
1156 -> 1208 ;
1209 [label="X[8] <= 11.0\ngini = 0.18\nsamples = 6\nvalue = [1, 9]"] ;
1208 -> 1209 ;
1210 [label="gini = 0.0\nsamples = 4\nvalue = [0, 6]"] ;
1209 -> 1210 ;
1211 [label="X[6] <= 8.5\ngini = 0.375\nsamples = 2\nvalue = [1, 3]"] ;
1209 -> 1211 ;
1212 [label="gini = 0.0\nsamples = 1\nvalue = [1, 0]"] ;
1211 -> 1212 ;
1213 [label="gini = 0.0\nsamples = 1\nvalue = [0, 3]"] ;
1211 -> 1213 ;
1214 [label="gini = 0.0\nsamples = 2\nvalue = [3, 0]"] ;
1208 -> 1214 ;
1215 [label="X[0] <= 36.5\ngini = 0.49\nsamples = 16\nvalue = [12, 16]"] ;
1153 -> 1215 ;
1216 [label="X[6] <= 6.5\ngini = 0.469\nsamples = 10\nvalue = [10, 6]"] ;
1215 -> 1216 ;
1217 [label="X[8] <= 1.5\ngini = 0.32\nsamples = 7\nvalue = [8, 2]"] ;
1216 -> 1217 ;
1218 [label="X[0] <= 4.5\ngini = 0.444\nsamples = 5\nvalue = [4, 2]"] ;
1217 -> 1218 ;
1219 [label="gini = 0.0\nsamples = 1\nvalue = [0, 1]"] ;
1218 -> 1219 ;
1220 [label="X[2] <= 1773.0\ngini = 0.32\nsamples = 4\nvalue = [4, 1]"] ;
1218 -> 1220 ;
1221 [label="gini = 0.0\nsamples = 2\nvalue = [3, 0]"] ;
1220 -> 1221 ;
1222 [label="X[0] <= 34.0\ngini = 0.5\nsamples = 2\nvalue = [1, 1]"] ;
1220 -> 1222 ;
1223 [label="gini = 0.0\nsamples = 1\nvalue = [0, 1]"] ;
1222 -> 1223 ;
1224 [label="gini = 0.0\nsamples = 1\nvalue = [1, 0]"] ;
1222 -> 1224 ;
1225 [label="gini = 0.0\nsamples = 2\nvalue = [4, 0]"] ;
1217 -> 1225 ;
1226 [label="X[1] <= 23.5\ngini = 0.444\nsamples = 3\nvalue = [2, 4]"] ;
1216 -> 1226 ;
1227 [label="gini = 0.0\nsamples = 1\nvalue = [2, 0]"] ;
1226 -> 1227 ;
1228 [label="gini = 0.0\nsamples = 2\nvalue = [0, 4]"] ;
1226 -> 1228 ;
1229 [label="X[1] <= 23.5\ngini = 0.278\nsamples = 6\nvalue = [2, 10]"] ;
1215 -> 1229 ;
1230 [label="X[6] <= 4.5\ngini = 0.444\nsamples = 3\nvalue = [2, 4]"] ;
1229 -> 1230 ;
1231 [label="gini = 0.0\nsamples = 1\nvalue = [0, 3]"] ;
1230 -> 1231 ;
1232 [label="X[2] <= 875.0\ngini = 0.444\nsamples = 2\nvalue = [2, 1]"] ;
1230 -> 1232 ;
1233 [label="gini = 0.0\nsamples = 1\nvalue = [2, 0]"] ;
1232 -> 1233 ;
1234 [label="gini = 0.0\nsamples = 1\nvalue = [0, 1]"] ;
1232 -> 1234 ;
1235 [label="gini = 0.0\nsamples = 3\nvalue = [0, 6]"] ;
1229 -> 1235 ;
1236 [label="X[1] <= 9.0\ngini = 0.444\nsamples = 11\nvalue = [10, 5]"] ;
1152 -> 1236 ;
1237 [label="X[1] <= 3.0\ngini = 0.408\nsamples = 10\nvalue = [10, 4]"] ;
1236 -> 1237 ;
1238 [label="X[7] <= 0.5\ngini = 0.463\nsamples = 7\nvalue = [7, 4]"] ;
1237 -> 1238 ;
1239 [label="X[2] <= 195.0\ngini = 0.48\nsamples = 4\nvalue = [2, 3]"] ;
1238 -> 1239 ;
1240 [label="X[0] <= 670.0\ngini = 0.444\nsamples = 3\nvalue = [2, 1]"] ;
1239 -> 1240 ;
1241 [label="gini = 0.0\nsamples = 2\nvalue = [2, 0]"] ;
1240 -> 1241 ;
1242 [label="gini = 0.0\nsamples = 1\nvalue = [0, 1]"] ;
1240 -> 1242 ;
1243 [label="gini = 0.0\nsamples = 1\nvalue = [0, 2]"] ;
1239 -> 1243 ;
1244 [label="X[2] <= 10.0\ngini = 0.278\nsamples = 3\nvalue = [5, 1]"] ;
1238 -> 1244 ;
1245 [label="gini = 0.0\nsamples = 1\nvalue = [0, 1]"] ;
1244 -> 1245 ;
1246 [label="gini = 0.0\nsamples = 2\nvalue = [5, 0]"] ;
1244 -> 1246 ;
1247 [label="gini = 0.0\nsamples = 3\nvalue = [3, 0]"] ;
1237 -> 1247 ;
1248 [label="gini = 0.0\nsamples = 1\nvalue = [0, 1]"] ;
1236 -> 1248 ;
1249 [label="X[0] <= 721.0\ngini = 0.426\nsamples = 15\nvalue = [18, 8]"] ;
1151 -> 1249 ;
1250 [label="X[1] <= 9.5\ngini = 0.34\nsamples = 13\nvalue = [18, 5]"] ;
1249 -> 1250 ;
1251 [label="X[6] <= 6.5\ngini = 0.298\nsamples = 12\nvalue = [18, 4]"] ;
1250 -> 1251 ;
1252 [label="X[1] <= 2.5\ngini = 0.463\nsamples = 7\nvalue = [7, 4]"] ;
1251 -> 1252 ;
1253 [label="X[6] <= 5.5\ngini = 0.5\nsamples = 5\nvalue = [4, 4]"] ;
1252 -> 1253 ;
1254 [label="X[0] <= 271.0\ngini = 0.444\nsamples = 4\nvalue = [4, 2]"] ;
1253 -> 1254 ;
1255 [label="gini = 0.0\nsamples = 2\nvalue = [4, 0]"] ;
1254 -> 1255 ;
1256 [label="gini = 0.0\nsamples = 2\nvalue = [0, 2]"] ;
1254 -> 1256 ;
1257 [label="gini = 0.0\nsamples = 1\nvalue = [0, 2]"] ;
1253 -> 1257 ;
1258 [label="gini = 0.0\nsamples = 2\nvalue = [3, 0]"] ;
1252 -> 1258 ;
1259 [label="gini = 0.0\nsamples = 5\nvalue = [11, 0]"] ;
1251 -> 1259 ;
1260 [label="gini = 0.0\nsamples = 1\nvalue = [0, 1]"] ;
1250 -> 1260 ;
1261 [label="gini = 0.0\nsamples = 2\nvalue = [0, 3]"] ;
1249 -> 1261 ;
1262 [label="X[0] <= 59.5\ngini = 0.487\nsamples = 839\nvalue = [562, 776]"] ;
1150 -> 1262 ;
1263 [label="X[8] <= 0.5\ngini = 0.474\nsamples = 734\nvalue = [447, 711]"] ;
1262 -> 1263 ;
1264 [label="X[0] <= 2.5\ngini = 0.383\nsamples = 299\nvalue = [122, 351]"] ;
1263 -> 1264 ;
1265 [label="X[6] <= 9.5\ngini = 0.463\nsamples = 196\nvalue = [117, 204]"] ;
1264 -> 1265 ;
1266 [label="X[1] <= 1.0\ngini = 0.439\nsamples = 158\nvalue = [89, 184]"] ;
1265 -> 1266 ;
1267 [label="X[6] <= 3.5\ngini = 0.294\nsamples = 116\nvalue = [34, 156]"] ;
1266 -> 1267 ;
1268 [label="X[7] <= 0.5\ngini = 0.139\nsamples = 52\nvalue = [6, 74]"] ;
1267 -> 1268 ;
1269 [label="X[0] <= 0.5\ngini = 0.155\nsamples = 46\nvalue = [6, 65]"] ;
1268 -> 1269 ;
1270 [label="X[6] <= 1.5\ngini = 0.157\nsamples = 45\nvalue = [6, 64]"] ;
1269 -> 1270 ;
1271 [label="gini = 0.278\nsamples = 21\nvalue = [6, 30]"] ;
1270 -> 1271 ;
